svm_type c_svc
kernel_type rbf
gamma 0.00915781944436709
nr_class 2
total_sv 1477
rho 1.0947306675648671
label 1 -1
nr_sv 710 767
SV
1.8845538038106642 115:1.0 599:1.0 906:1.0 1315:1.0 1764:1.0 2148:1.0 2557:1.0 3119:1.0 3532:1.0 3916:1.0 4325:1.0 4556:1.0 4951:1.0 5364:1.0 5748:1.0 6157:1.0 6577:1.0 6972:1.0 7385:1.0 7714:1.0 8109:1.0 8719:1.0 8972:1.0 9369:1.0 9701:1.0 10085:1.0 10494:1.0 10990:1.0 11399:1.0 11735:1.0 12130:1.0 12543:1.0 12851:1.0 13566:1.0 13974:1.0 14358:1.0 14767:1.0 15146:1.0 
3.592745498078412 123:1.0 607:1.0 921:1.0 1323:1.0 1764:1.0 2163:1.0 2565:1.0 3129:1.0 3532:1.0 3931:1.0 4333:1.0 4556:1.0 4961:1.0 5364:1.0 5763:1.0 6165:1.0 6577:1.0 6982:1.0 7385:1.0 7714:1.0 8119:1.0 8729:1.0 8982:1.0 9384:1.0 9701:1.0 10100:1.0 10502:1.0 11005:1.0 11407:1.0 11735:1.0 12140:1.0 12543:1.0 12851:1.0 13566:1.0 13974:1.0 14373:1.0 14775:1.0 15154:1.0 
3.592745498078412 123:1.0 607:1.0 913:1.0 1323:1.0 1763:1.0 2155:1.0 2565:1.0 3119:1.0 3531:1.0 3923:1.0 4333:1.0 4562:1.0 4951:1.0 5363:1.0 5755:1.0 6165:1.0 6583:1.0 6972:1.0 7384:1.0 7720:1.0 8109:1.0 8719:1.0 8972:1.0 9376:1.0 9700:1.0 10092:1.0 10502:1.0 10997:1.0 11407:1.0 11741:1.0 12130:1.0 12542:1.0 12857:1.0 13572:1.0 13973:1.0 14365:1.0 14775:1.0 15154:1.0 
3.592745498078412 123:1.0 607:1.0 909:1.0 1323:1.0 1763:1.0 2151:1.0 2565:1.0 3119:1.0 3531:1.0 3919:1.0 4333:1.0 4557:1.0 4951:1.0 5363:1.0 5751:1.0 6165:1.0 6578:1.0 6972:1.0 7384:1.0 7715:1.0 8109:1.0 8719:1.0 8972:1.0 9372:1.0 9700:1.0 10088:1.0 10502:1.0 10993:1.0 11407:1.0 11736:1.0 12130:1.0 12542:1.0 12852:1.0 13567:1.0 13973:1.0 14361:1.0 14775:1.0 15154:1.0 
3.592745498078412 123:1.0 607:1.0 909:1.0 1323:1.0 1763:1.0 2151:1.0 2565:1.0 3119:1.0 3531:1.0 3919:1.0 4333:1.0 4557:1.0 4951:1.0 5363:1.0 5751:1.0 6165:1.0 6578:1.0 6972:1.0 7384:1.0 7715:1.0 8109:1.0 8719:1.0 8972:1.0 9372:1.0 9700:1.0 10088:1.0 10502:1.0 10993:1.0 11407:1.0 11736:1.0 12130:1.0 12542:1.0 12852:1.0 13567:1.0 13973:1.0 14361:1.0 14775:1.0 14818:1.0 
3.592745498078412 123:1.0 607:1.0 922:1.0 1323:1.0 1764:1.0 2164:1.0 2565:1.0 3119:1.0 3532:1.0 3932:1.0 4333:1.0 4553:1.0 4951:1.0 5364:1.0 5764:1.0 6165:1.0 6574:1.0 6972:1.0 7385:1.0 7711:1.0 8109:1.0 8719:1.0 8972:1.0 9385:1.0 9701:1.0 10101:1.0 10502:1.0 11006:1.0 11407:1.0 11732:1.0 12130:1.0 12543:1.0 12848:1.0 13563:1.0 13974:1.0 14374:1.0 14775:1.0 14818:1.0 
3.592745498078412 113:1.0 597:1.0 921:1.0 1313:1.0 1764:1.0 2163:1.0 2555:1.0 3119:1.0 3532:1.0 3931:1.0 4323:1.0 4550:1.0 4951:1.0 5364:1.0 5763:1.0 6155:1.0 6571:1.0 6972:1.0 7385:1.0 7708:1.0 8109:1.0 8719:1.0 8972:1.0 9384:1.0 9701:1.0 10100:1.0 10492:1.0 11005:1.0 11397:1.0 11729:1.0 12130:1.0 12543:1.0 12845:1.0 13560:1.0 13974:1.0 14373:1.0 14765:1.0 14808:1.0 
3.592745498078412 115:1.0 599:1.0 921:1.0 1315:1.0 1764:1.0 2163:1.0 2557:1.0 3119:1.0 3532:1.0 3931:1.0 4325:1.0 4557:1.0 4951:1.0 5364:1.0 5763:1.0 6157:1.0 6578:1.0 6972:1.0 7385:1.0 7715:1.0 8109:1.0 8719:1.0 8972:1.0 9384:1.0 9701:1.0 10100:1.0 10494:1.0 11005:1.0 11399:1.0 11736:1.0 12130:1.0 12543:1.0 12852:1.0 13567:1.0 13974:1.0 14373:1.0 14767:1.0 14810:1.0 
3.3256873856709928 123:1.0 607:1.0 912:1.0 1323:1.0 1764:1.0 2154:1.0 2565:1.0 3119:1.0 3532:1.0 3922:1.0 4333:1.0 4555:1.0 4951:1.0 5364:1.0 5754:1.0 6165:1.0 6576:1.0 6972:1.0 7385:1.0 7713:1.0 8109:1.0 8719:1.0 8972:1.0 9375:1.0 9701:1.0 10091:1.0 10502:1.0 10996:1.0 11407:1.0 11734:1.0 12130:1.0 12543:1.0 12850:1.0 13565:1.0 13974:1.0 14364:1.0 14775:1.0 14818:1.0 
0.18377897133828291 115:1.0 599:1.0 917:1.0 1315:1.0 1764:1.0 2159:1.0 2557:1.0 3119:1.0 3532:1.0 3927:1.0 4325:1.0 4550:1.0 4951:1.0 5364:1.0 5759:1.0 6157:1.0 6571:1.0 6972:1.0 7385:1.0 7708:1.0 8109:1.0 8719:1.0 8972:1.0 9380:1.0 9701:1.0 10096:1.0 10494:1.0 11001:1.0 11399:1.0 11729:1.0 12130:1.0 12543:1.0 12845:1.0 13560:1.0 13974:1.0 14369:1.0 14767:1.0 14810:1.0 
1.3695597020630303 123:1.0 607:1.0 922:1.0 1323:1.0 1764:1.0 2164:1.0 2565:1.0 3119:1.0 3532:1.0 3932:1.0 4333:1.0 4562:1.0 4951:1.0 5364:1.0 5764:1.0 6165:1.0 6583:1.0 6972:1.0 7385:1.0 7720:1.0 8109:1.0 8719:1.0 8972:1.0 9385:1.0 9701:1.0 10101:1.0 10502:1.0 11006:1.0 11407:1.0 11741:1.0 12130:1.0 12543:1.0 12857:1.0 13572:1.0 13974:1.0 14374:1.0 14775:1.0 14818:1.0 
3.592745498078412 123:1.0 607:1.0 913:1.0 1323:1.0 1763:1.0 2155:1.0 2565:1.0 3119:1.0 3531:1.0 3923:1.0 4333:1.0 4562:1.0 4951:1.0 5363:1.0 5755:1.0 6165:1.0 6583:1.0 6972:1.0 7384:1.0 7720:1.0 8109:1.0 8719:1.0 8972:1.0 9376:1.0 9700:1.0 10092:1.0 10502:1.0 10997:1.0 11407:1.0 11741:1.0 12130:1.0 12542:1.0 12857:1.0 13572:1.0 13973:1.0 14365:1.0 14775:1.0 14818:1.0 
1.6655567946954237 123:1.0 607:1.0 908:1.0 1323:1.0 1764:1.0 2150:1.0 2565:1.0 3119:1.0 3532:1.0 3918:1.0 4333:1.0 4565:1.0 4951:1.0 5364:1.0 5750:1.0 6165:1.0 6586:1.0 6972:1.0 7385:1.0 7723:1.0 8109:1.0 8719:1.0 8972:1.0 9371:1.0 9701:1.0 10087:1.0 10502:1.0 10992:1.0 11407:1.0 11744:1.0 12130:1.0 12543:1.0 12860:1.0 13575:1.0 13974:1.0 14360:1.0 14775:1.0 14818:1.0 
3.592745498078412 123:1.0 607:1.0 919:1.0 1323:1.0 1764:1.0 2161:1.0 2565:1.0 3119:1.0 3532:1.0 3929:1.0 4333:1.0 4563:1.0 4951:1.0 5364:1.0 5761:1.0 6165:1.0 6584:1.0 6972:1.0 7385:1.0 7721:1.0 8109:1.0 8719:1.0 8972:1.0 9382:1.0 9701:1.0 10098:1.0 10502:1.0 11003:1.0 11407:1.0 11742:1.0 12130:1.0 12543:1.0 12858:1.0 13573:1.0 13974:1.0 14371:1.0 14775:1.0 14818:1.0 
2.419343382566723 123:1.0 607:1.0 921:1.0 1323:1.0 1764:1.0 2163:1.0 2565:1.0 3119:1.0 3532:1.0 3931:1.0 4333:1.0 4560:1.0 4951:1.0 5364:1.0 5763:1.0 6165:1.0 6581:1.0 6972:1.0 7385:1.0 7718:1.0 8109:1.0 8719:1.0 8972:1.0 9384:1.0 9701:1.0 10100:1.0 10502:1.0 11005:1.0 11407:1.0 11739:1.0 12130:1.0 12543:1.0 12855:1.0 13570:1.0 13974:1.0 14373:1.0 14775:1.0 14818:1.0 
3.592745498078412 123:1.0 607:1.0 913:1.0 1323:1.0 1700:1.0 2092:1.0 2502:1.0 3119:1.0 3531:1.0 3923:1.0 4333:1.0 4562:1.0 4951:1.0 5363:1.0 5755:1.0 6165:1.0 6415:1.0 6804:1.0 7216:1.0 7720:1.0 8109:1.0 8740:1.0 8972:1.0 9376:1.0 9763:1.0 10155:1.0 10565:1.0 10913:1.0 11323:1.0 11741:1.0 12130:1.0 12542:1.0 12878:1.0 13572:1.0 13973:1.0 14365:1.0 14775:1.0 15154:1.0 
3.592745498078412 113:1.0 597:1.0 909:1.0 1313:1.0 1700:1.0 2088:1.0 2492:1.0 3119:1.0 3531:1.0 3919:1.0 4323:1.0 4562:1.0 4951:1.0 5363:1.0 5751:1.0 6155:1.0 6415:1.0 6804:1.0 7216:1.0 7720:1.0 8109:1.0 8740:1.0 8972:1.0 9372:1.0 9763:1.0 10151:1.0 10555:1.0 10909:1.0 11313:1.0 11741:1.0 12130:1.0 12542:1.0 12878:1.0 13572:1.0 13973:1.0 14361:1.0 14765:1.0 15144:1.0 
3.592745498078412 123:1.0 607:1.0 916:1.0 1323:1.0 1700:1.0 2095:1.0 2502:1.0 3119:1.0 3531:1.0 3926:1.0 4333:1.0 4557:1.0 4951:1.0 5363:1.0 5758:1.0 6165:1.0 6410:1.0 6804:1.0 7216:1.0 7715:1.0 8109:1.0 8740:1.0 8972:1.0 9379:1.0 9763:1.0 10158:1.0 10565:1.0 10916:1.0 11323:1.0 11736:1.0 12130:1.0 12542:1.0 12873:1.0 13567:1.0 13973:1.0 14368:1.0 14775:1.0 15154:1.0 
3.592745498078412 115:1.0 599:1.0 921:1.0 1315:1.0 1701:1.0 2100:1.0 2494:1.0 3119:1.0 3532:1.0 3931:1.0 4325:1.0 4557:1.0 4951:1.0 5364:1.0 5763:1.0 6157:1.0 6410:1.0 6804:1.0 7217:1.0 7715:1.0 8109:1.0 8740:1.0 8972:1.0 9384:1.0 9764:1.0 10163:1.0 10557:1.0 10921:1.0 11315:1.0 11736:1.0 12130:1.0 12543:1.0 12873:1.0 13567:1.0 13974:1.0 14373:1.0 14767:1.0 15146:1.0 
3.592745498078412 123:1.0 607:1.0 918:1.0 1323:1.0 1701:1.0 2097:1.0 2502:1.0 3132:1.0 3532:1.0 3928:1.0 4333:1.0 4562:1.0 4964:1.0 5364:1.0 5760:1.0 6165:1.0 6415:1.0 6817:1.0 7217:1.0 7720:1.0 8122:1.0 8753:1.0 8985:1.0 9381:1.0 9764:1.0 10160:1.0 10565:1.0 10918:1.0 11323:1.0 11741:1.0 12143:1.0 12543:1.0 12878:1.0 13572:1.0 13974:1.0 14370:1.0 14775:1.0 15154:1.0 
3.592745498078412 123:1.0 607:1.0 909:1.0 1323:1.0 1701:1.0 2088:1.0 2502:1.0 3041:1.0 3448:1.0 3835:1.0 4249:1.0 4558:1.0 4957:1.0 5364:1.0 5751:1.0 6165:1.0 6768:1.0 7167:1.0 7574:1.0 7716:1.0 8115:1.0 8725:1.0 8894:1.0 9288:1.0 9806:1.0 10193:1.0 10607:1.0 10909:1.0 11323:1.0 11737:1.0 12136:1.0 12543:1.0 12874:1.0 13211:1.0 13617:1.0 14004:1.0 14418:1.0 14818:1.0 
3.592745498078412 113:1.0 597:1.0 909:1.0 1313:1.0 1700:1.0 2088:1.0 2492:1.0 3035:1.0 3447:1.0 3835:1.0 4239:1.0 4562:1.0 4951:1.0 5363:1.0 5751:1.0 6155:1.0 6772:1.0 7161:1.0 7573:1.0 7720:1.0 8109:1.0 8719:1.0 8888:1.0 9288:1.0 9805:1.0 10193:1.0 10597:1.0 10909:1.0 11313:1.0 11741:1.0 12130:1.0 12542:1.0 12878:1.0 13215:1.0 13616:1.0 14004:1.0 14408:1.0 14808:1.0 
3.3999332159790487 123:1.0 607:1.0 909:1.0 1323:1.0 1700:1.0 2088:1.0 2502:1.0 3035:1.0 3447:1.0 3835:1.0 4249:1.0 4557:1.0 4951:1.0 5363:1.0 5751:1.0 6165:1.0 6767:1.0 7161:1.0 7573:1.0 7715:1.0 8109:1.0 8719:1.0 8888:1.0 9288:1.0 9805:1.0 10193:1.0 10607:1.0 10909:1.0 11323:1.0 11736:1.0 12130:1.0 12542:1.0 12873:1.0 13210:1.0 13616:1.0 14004:1.0 14418:1.0 14818:1.0 
3.592745498078412 123:1.0 607:1.0 909:1.0 1323:1.0 1701:1.0 2088:1.0 2502:1.0 3049:1.0 3448:1.0 3835:1.0 4249:1.0 4558:1.0 4965:1.0 5364:1.0 5751:1.0 6165:1.0 6768:1.0 7175:1.0 7574:1.0 7716:1.0 8123:1.0 8733:1.0 8902:1.0 9288:1.0 9806:1.0 10193:1.0 10607:1.0 10909:1.0 11323:1.0 11737:1.0 12144:1.0 12543:1.0 12874:1.0 13211:1.0 13617:1.0 14004:1.0 14418:1.0 14818:1.0 
3.592745498078412 123:1.0 607:1.0 906:1.0 1323:1.0 1700:1.0 2085:1.0 2502:1.0 3045:1.0 3447:1.0 3832:1.0 4249:1.0 4557:1.0 4961:1.0 5363:1.0 5748:1.0 6165:1.0 6767:1.0 7171:1.0 7573:1.0 7715:1.0 8119:1.0 8729:1.0 8898:1.0 9285:1.0 9805:1.0 10190:1.0 10607:1.0 10906:1.0 11323:1.0 11736:1.0 12140:1.0 12542:1.0 12873:1.0 13210:1.0 13616:1.0 14001:1.0 14418:1.0 14818:1.0 
3.592745498078412 113:1.0 597:1.0 921:1.0 1313:1.0 1700:1.0 2100:1.0 2492:1.0 3035:1.0 3447:1.0 3847:1.0 4239:1.0 4556:1.0 4951:1.0 5363:1.0 5763:1.0 6155:1.0 6766:1.0 7161:1.0 7573:1.0 7714:1.0 8109:1.0 8719:1.0 8888:1.0 9300:1.0 9805:1.0 10205:1.0 10597:1.0 10921:1.0 11313:1.0 11735:1.0 12130:1.0 12542:1.0 12872:1.0 13209:1.0 13616:1.0 14016:1.0 14408:1.0 14808:1.0 
3.592745498078412 115:1.0 599:1.0 921:1.0 1315:1.0 1701:1.0 2100:1.0 2494:1.0 3035:1.0 3448:1.0 3847:1.0 4241:1.0 4557:1.0 4951:1.0 5364:1.0 5763:1.0 6157:1.0 6767:1.0 7161:1.0 7574:1.0 7715:1.0 8109:1.0 8719:1.0 8888:1.0 9300:1.0 9806:1.0 10205:1.0 10599:1.0 10921:1.0 11315:1.0 11736:1.0 12130:1.0 12543:1.0 12873:1.0 13210:1.0 13617:1.0 14016:1.0 14410:1.0 14810:1.0 
3.592745498078412 123:1.0 607:1.0 921:1.0 1323:1.0 1700:1.0 2100:1.0 2502:1.0 3039:1.0 3447:1.0 3847:1.0 4249:1.0 4562:1.0 4955:1.0 5363:1.0 5763:1.0 6165:1.0 6772:1.0 7165:1.0 7573:1.0 7720:1.0 8113:1.0 8723:1.0 8892:1.0 9300:1.0 9805:1.0 10205:1.0 10607:1.0 10921:1.0 11323:1.0 11741:1.0 12134:1.0 12542:1.0 12878:1.0 13215:1.0 13616:1.0 14016:1.0 14418:1.0 14818:1.0 
3.592745498078412 123:1.0 607:1.0 915:1.0 1323:1.0 1700:1.0 2094:1.0 2502:1.0 3035:1.0 3447:1.0 3841:1.0 4249:1.0 4556:1.0 4951:1.0 5363:1.0 5757:1.0 6165:1.0 6766:1.0 7161:1.0 7573:1.0 7714:1.0 8109:1.0 8719:1.0 8888:1.0 9294:1.0 9805:1.0 10199:1.0 10607:1.0 10915:1.0 11323:1.0 11735:1.0 12130:1.0 12542:1.0 12872:1.0 13209:1.0 13616:1.0 14010:1.0 14418:1.0 14818:1.0 
3.592745498078412 18:1.0 607:1.0 924:1.0 1323:1.0 1748:1.0 2166:1.0 2565:1.0 3123:1.0 3516:1.0 3934:1.0 4333:1.0 4555:1.0 4955:1.0 5348:1.0 5766:1.0 6165:1.0 6408:1.0 6808:1.0 7201:1.0 7713:1.0 8113:1.0 8408:1.0 9018:1.0 9429:1.0 9874:1.0 10292:1.0 10691:1.0 10924:1.0 11323:1.0 11734:1.0 12134:1.0 12527:1.0 13144:1.0 13565:1.0 13958:1.0 14376:1.0 14775:1.0 14818:1.0 
3.592745498078412 18:1.0 607:1.0 909:1.0 1323:1.0 1764:1.0 2151:1.0 2565:1.0 3125:1.0 3532:1.0 3919:1.0 4333:1.0 4558:1.0 4957:1.0 5364:1.0 5751:1.0 6165:1.0 6411:1.0 6810:1.0 7217:1.0 7716:1.0 8115:1.0 8410:1.0 9020:1.0 9414:1.0 9890:1.0 10277:1.0 10691:1.0 10909:1.0 11323:1.0 11737:1.0 12136:1.0 12543:1.0 13147:1.0 13568:1.0 13974:1.0 14361:1.0 14775:1.0 14818:1.0 
2.2209098156295273 10:1.0 599:1.0 924:1.0 1315:1.0 1764:1.0 2166:1.0 2557:1.0 3125:1.0 3532:1.0 3934:1.0 4325:1.0 4552:1.0 4957:1.0 5364:1.0 5766:1.0 6157:1.0 6405:1.0 6810:1.0 7217:1.0 7710:1.0 8115:1.0 8410:1.0 9020:1.0 9429:1.0 9890:1.0 10292:1.0 10683:1.0 10924:1.0 11315:1.0 11731:1.0 12136:1.0 12543:1.0 13141:1.0 13562:1.0 13974:1.0 14376:1.0 14767:1.0 14810:1.0 
3.592745498078412 333:1.0 607:1.0 924:1.0 1323:1.0 1748:1.0 2166:1.0 2565:1.0 3102:1.0 3495:1.0 3913:1.0 4312:1.0 4555:1.0 4955:1.0 5348:1.0 5766:1.0 6165:1.0 6765:1.0 7165:1.0 7558:1.0 7713:1.0 8113:1.0 8576:1.0 9123:1.0 9534:1.0 9748:1.0 10166:1.0 10565:1.0 11134:1.0 11533:1.0 11839:1.0 12239:1.0 12632:1.0 13081:1.0 13565:1.0 13958:1.0 14376:1.0 14775:1.0 14818:1.0 
3.592745498078412 323:1.0 597:1.0 915:1.0 1313:1.0 1766:1.0 2157:1.0 2555:1.0 3098:1.0 3513:1.0 3904:1.0 4302:1.0 4556:1.0 4951:1.0 5366:1.0 5757:1.0 6155:1.0 6766:1.0 7161:1.0 7576:1.0 7714:1.0 8109:1.0 8572:1.0 9119:1.0 9525:1.0 9766:1.0 10157:1.0 10555:1.0 11125:1.0 11523:1.0 11840:1.0 12235:1.0 12650:1.0 13082:1.0 13566:1.0 13976:1.0 14367:1.0 14765:1.0 14808:1.0 
3.592745498078412 123:1.0 607:1.0 919:1.0 1323:1.0 1692:1.0 2098:1.0 2502:1.0 3121:1.0 3523:1.0 3929:1.0 4333:1.0 4564:1.0 4953:1.0 5355:1.0 5761:1.0 6165:1.0 6606:1.0 6995:1.0 7397:1.0 7659:1.0 8048:1.0 8700:1.0 9121:1.0 9529:1.0 9965:1.0 10371:1.0 10775:1.0 10919:1.0 11323:1.0 11806:1.0 12195:1.0 12597:1.0 12817:1.0 13574:1.0 13965:1.0 14371:1.0 14775:1.0 15175:1.0 
3.1643400901698953 110:1.0 594:1.0 910:1.0 1310:1.0 1704:1.0 2089:1.0 2489:1.0 3119:1.0 3535:1.0 3920:1.0 4320:1.0 4556:1.0 4951:1.0 5367:1.0 5752:1.0 6152:1.0 6598:1.0 6993:1.0 7409:1.0 7651:1.0 8046:1.0 8698:1.0 9119:1.0 9520:1.0 9977:1.0 10362:1.0 10762:1.0 10910:1.0 11310:1.0 11798:1.0 12193:1.0 12609:1.0 12809:1.0 13566:1.0 13977:1.0 14362:1.0 14762:1.0 15162:1.0 
3.592745498078412 113:1.0 597:1.0 910:1.0 1313:1.0 1704:1.0 2089:1.0 2492:1.0 3119:1.0 3535:1.0 3920:1.0 4323:1.0 4556:1.0 4951:1.0 5367:1.0 5752:1.0 6155:1.0 6598:1.0 6993:1.0 7409:1.0 7651:1.0 8046:1.0 8698:1.0 9119:1.0 9520:1.0 9977:1.0 10362:1.0 10765:1.0 10910:1.0 11313:1.0 11798:1.0 12193:1.0 12609:1.0 12809:1.0 13566:1.0 13977:1.0 14362:1.0 14765:1.0 15165:1.0 
2.5817210810492948 123:1.0 607:1.0 925:1.0 1323:1.0 1704:1.0 2104:1.0 2502:1.0 3119:1.0 3535:1.0 3935:1.0 4333:1.0 4556:1.0 4951:1.0 5367:1.0 5767:1.0 6165:1.0 6598:1.0 6993:1.0 7409:1.0 7651:1.0 8046:1.0 8698:1.0 9119:1.0 9535:1.0 9977:1.0 10377:1.0 10775:1.0 10925:1.0 11323:1.0 11798:1.0 12193:1.0 12609:1.0 12809:1.0 13566:1.0 13977:1.0 14377:1.0 14775:1.0 15175:1.0 
3.592745498078412 123:1.0 607:1.0 924:1.0 1323:1.0 1790:1.0 2208:1.0 2607:1.0 3123:1.0 3516:1.0 3934:1.0 4333:1.0 4555:1.0 4955:1.0 5348:1.0 5766:1.0 6165:1.0 6765:1.0 7165:1.0 7558:1.0 7713:1.0 8113:1.0 8534:1.0 8871:1.0 9282:1.0 10000:1.0 10418:1.0 10817:1.0 10924:1.0 11323:1.0 11734:1.0 12134:1.0 12527:1.0 12871:1.0 13355:1.0 13748:1.0 14166:1.0 14565:1.0 15154:1.0 
3.592745498078412 123:1.0 607:1.0 918:1.0 1323:1.0 1806:1.0 2202:1.0 2607:1.0 3132:1.0 3532:1.0 3928:1.0 4333:1.0 4562:1.0 4964:1.0 5364:1.0 5760:1.0 6165:1.0 6772:1.0 7174:1.0 7574:1.0 7720:1.0 8122:1.0 8543:1.0 8880:1.0 9276:1.0 10016:1.0 10412:1.0 10817:1.0 10918:1.0 11323:1.0 11741:1.0 12143:1.0 12543:1.0 12878:1.0 13362:1.0 13764:1.0 14160:1.0 14565:1.0 15154:1.0 
3.592745498078412 123:1.0 607:1.0 909:1.0 1323:1.0 1806:1.0 2193:1.0 2607:1.0 3133:1.0 3532:1.0 3919:1.0 4333:1.0 4558:1.0 4965:1.0 5364:1.0 5751:1.0 6165:1.0 6768:1.0 7175:1.0 7574:1.0 7716:1.0 8123:1.0 8544:1.0 8881:1.0 9267:1.0 10016:1.0 10403:1.0 10817:1.0 10909:1.0 11323:1.0 11737:1.0 12144:1.0 12543:1.0 12874:1.0 13358:1.0 13764:1.0 14151:1.0 14565:1.0 15154:1.0 
3.592745498078412 123:1.0 607:1.0 906:1.0 1323:1.0 1805:1.0 2190:1.0 2607:1.0 3129:1.0 3531:1.0 3916:1.0 4333:1.0 4557:1.0 4961:1.0 5363:1.0 5748:1.0 6165:1.0 6767:1.0 7171:1.0 7573:1.0 7715:1.0 8119:1.0 8540:1.0 8877:1.0 9264:1.0 10015:1.0 10400:1.0 10817:1.0 10906:1.0 11323:1.0 11736:1.0 12140:1.0 12542:1.0 12873:1.0 13357:1.0 13763:1.0 14148:1.0 14565:1.0 15154:1.0 
3.592745498078412 123:1.0 607:1.0 912:1.0 1323:1.0 1806:1.0 2196:1.0 2607:1.0 3119:1.0 3532:1.0 3922:1.0 4333:1.0 4555:1.0 4951:1.0 5364:1.0 5754:1.0 6165:1.0 6765:1.0 7161:1.0 7574:1.0 7713:1.0 8109:1.0 8530:1.0 8867:1.0 9270:1.0 10016:1.0 10406:1.0 10817:1.0 10912:1.0 11323:1.0 11734:1.0 12130:1.0 12543:1.0 12871:1.0 13355:1.0 13764:1.0 14154:1.0 14565:1.0 15154:1.0 
3.592745498078412 107:1.0 591:1.0 913:1.0 1307:1.0 1805:1.0 2197:1.0 2591:1.0 3133:1.0 3531:1.0 3923:1.0 4317:1.0 4557:1.0 4965:1.0 5363:1.0 5755:1.0 6149:1.0 6767:1.0 7175:1.0 7573:1.0 7715:1.0 8123:1.0 8544:1.0 8881:1.0 9271:1.0 10015:1.0 10407:1.0 10801:1.0 10913:1.0 11307:1.0 11736:1.0 12144:1.0 12542:1.0 12873:1.0 13357:1.0 13763:1.0 14155:1.0 14549:1.0 15138:1.0 
0.6309005927851933 123:1.0 607:1.0 917:1.0 1323:1.0 1805:1.0 2201:1.0 2607:1.0 3123:1.0 3531:1.0 3927:1.0 4333:1.0 4562:1.0 4955:1.0 5363:1.0 5759:1.0 6165:1.0 6772:1.0 7165:1.0 7573:1.0 7720:1.0 8113:1.0 8534:1.0 8871:1.0 9275:1.0 10015:1.0 10411:1.0 10817:1.0 10917:1.0 11323:1.0 11741:1.0 12134:1.0 12542:1.0 12878:1.0 13362:1.0 13763:1.0 14159:1.0 14565:1.0 15154:1.0 
3.592745498078412 123:1.0 607:1.0 921:1.0 1323:1.0 1792:1.0 2205:1.0 2607:1.0 3133:1.0 3518:1.0 3931:1.0 4333:1.0 4556:1.0 4965:1.0 5350:1.0 5763:1.0 6165:1.0 6766:1.0 7175:1.0 7560:1.0 7714:1.0 8123:1.0 8544:1.0 8881:1.0 9279:1.0 10002:1.0 10415:1.0 10817:1.0 10921:1.0 11323:1.0 11735:1.0 12144:1.0 12529:1.0 12872:1.0 13356:1.0 13750:1.0 14163:1.0 14565:1.0 15154:1.0 
3.592745498078412 115:1.0 599:1.0 921:1.0 1315:1.0 1805:1.0 2205:1.0 2599:1.0 3123:1.0 3531:1.0 3931:1.0 4325:1.0 4556:1.0 4955:1.0 5363:1.0 5763:1.0 6157:1.0 6766:1.0 7165:1.0 7573:1.0 7714:1.0 8113:1.0 8534:1.0 8871:1.0 9279:1.0 10015:1.0 10415:1.0 10809:1.0 10921:1.0 11315:1.0 11735:1.0 12134:1.0 12542:1.0 12872:1.0 13356:1.0 13763:1.0 14163:1.0 14557:1.0 15146:1.0 
2.082678971561266 123:1.0 607:1.0 921:1.0 1323:1.0 1805:1.0 2205:1.0 2607:1.0 3123:1.0 3531:1.0 3931:1.0 4333:1.0 4562:1.0 4955:1.0 5363:1.0 5763:1.0 6165:1.0 6772:1.0 7165:1.0 7573:1.0 7720:1.0 8113:1.0 8534:1.0 8871:1.0 9279:1.0 10015:1.0 10415:1.0 10817:1.0 10921:1.0 11323:1.0 11741:1.0 12134:1.0 12542:1.0 12878:1.0 13362:1.0 13763:1.0 14163:1.0 14565:1.0 15154:1.0 
2.9070967966968597 123:1.0 607:1.0 919:1.0 1323:1.0 1797:1.0 2203:1.0 2607:1.0 3121:1.0 3523:1.0 3929:1.0 4333:1.0 4564:1.0 4953:1.0 5355:1.0 5761:1.0 6165:1.0 6774:1.0 7163:1.0 7565:1.0 7722:1.0 8111:1.0 8721:1.0 8848:1.0 9256:1.0 9965:1.0 10371:1.0 10775:1.0 10919:1.0 11323:1.0 11890:1.0 12279:1.0 12681:1.0 12880:1.0 13217:1.0 13608:1.0 14014:1.0 14418:1.0 15175:1.0 
3.592745498078412 123:1.0 607:1.0 909:1.0 1323:1.0 1807:1.0 2193:1.0 2607:1.0 3131:1.0 3533:1.0 3919:1.0 4333:1.0 4561:1.0 4963:1.0 5365:1.0 5751:1.0 6165:1.0 6771:1.0 7173:1.0 7575:1.0 7719:1.0 8121:1.0 8731:1.0 8858:1.0 9246:1.0 9975:1.0 10361:1.0 10775:1.0 10909:1.0 11323:1.0 11887:1.0 12289:1.0 12691:1.0 12877:1.0 13214:1.0 13618:1.0 14004:1.0 14418:1.0 15175:1.0 
3.592745498078412 123:1.0 607:1.0 924:1.0 1323:1.0 1790:1.0 2208:1.0 2607:1.0 3123:1.0 3516:1.0 3934:1.0 4333:1.0 4555:1.0 4955:1.0 5348:1.0 5766:1.0 6165:1.0 6765:1.0 7165:1.0 7558:1.0 7713:1.0 8113:1.0 8723:1.0 8850:1.0 9261:1.0 9958:1.0 10376:1.0 10775:1.0 10924:1.0 11323:1.0 11881:1.0 12281:1.0 12674:1.0 12871:1.0 13208:1.0 13601:1.0 14019:1.0 14418:1.0 15175:1.0 
3.592745498078412 123:1.0 607:1.0 925:1.0 1323:1.0 1790:1.0 2209:1.0 2607:1.0 3121:1.0 3516:1.0 3935:1.0 4333:1.0 4557:1.0 4953:1.0 5348:1.0 5767:1.0 6165:1.0 6767:1.0 7163:1.0 7558:1.0 7715:1.0 8111:1.0 8721:1.0 8848:1.0 9262:1.0 9958:1.0 10377:1.0 10775:1.0 10925:1.0 11323:1.0 11883:1.0 12279:1.0 12674:1.0 12873:1.0 13210:1.0 13601:1.0 14020:1.0 14418:1.0 15175:1.0 
3.592745498078412 123:1.0 607:1.0 908:1.0 1323:1.0 1794:1.0 2192:1.0 2607:1.0 3134:1.0 3520:1.0 3918:1.0 4333:1.0 4554:1.0 4966:1.0 5352:1.0 5750:1.0 6165:1.0 6764:1.0 7176:1.0 7562:1.0 7712:1.0 8124:1.0 8734:1.0 8861:1.0 9245:1.0 9962:1.0 10360:1.0 10775:1.0 10908:1.0 11323:1.0 11880:1.0 12292:1.0 12678:1.0 12870:1.0 13207:1.0 13605:1.0 14003:1.0 14418:1.0 15175:1.0 
3.592745498078412 123:1.0 607:1.0 909:1.0 1323:1.0 1807:1.0 2193:1.0 2607:1.0 3131:1.0 3533:1.0 3919:1.0 4333:1.0 4553:1.0 4963:1.0 5365:1.0 5751:1.0 6165:1.0 6763:1.0 7173:1.0 7575:1.0 7711:1.0 8121:1.0 8731:1.0 8858:1.0 9246:1.0 9975:1.0 10361:1.0 10775:1.0 10909:1.0 11323:1.0 11879:1.0 12289:1.0 12691:1.0 12869:1.0 13206:1.0 13618:1.0 14004:1.0 14418:1.0 15175:1.0 
3.592745498078412 123:1.0 607:1.0 925:1.0 1323:1.0 1803:1.0 2209:1.0 2607:1.0 3131:1.0 3529:1.0 3935:1.0 4333:1.0 4556:1.0 4963:1.0 5361:1.0 5767:1.0 6165:1.0 6766:1.0 7173:1.0 7571:1.0 7714:1.0 8121:1.0 8731:1.0 8858:1.0 9262:1.0 9971:1.0 10377:1.0 10775:1.0 10925:1.0 11323:1.0 11882:1.0 12289:1.0 12687:1.0 12872:1.0 13209:1.0 13614:1.0 14020:1.0 14418:1.0 15175:1.0 
3.592745498078412 123:1.0 607:1.0 919:1.0 1323:1.0 1807:1.0 2203:1.0 2607:1.0 3128:1.0 3533:1.0 3929:1.0 4333:1.0 4557:1.0 4960:1.0 5365:1.0 5761:1.0 6165:1.0 6767:1.0 7170:1.0 7575:1.0 7715:1.0 8118:1.0 8728:1.0 8855:1.0 9256:1.0 9975:1.0 10371:1.0 10775:1.0 10919:1.0 11323:1.0 11883:1.0 12286:1.0 12691:1.0 12873:1.0 13210:1.0 13618:1.0 14014:1.0 14418:1.0 15175:1.0 
3.592745498078412 123:1.0 607:1.0 924:1.0 1323:1.0 1811:1.0 2229:1.0 2628:1.0 2913:1.0 3306:1.0 3724:1.0 4123:1.0 4597:1.0 4997:1.0 5390:1.0 5808:1.0 6207:1.0 6555:1.0 6955:1.0 7348:1.0 7650:1.0 8050:1.0 8681:1.0 9144:1.0 9555:1.0 9790:1.0 10208:1.0 10607:1.0 11134:1.0 11533:1.0 12007:1.0 12407:1.0 12800:1.0 13018:1.0 13565:1.0 13958:1.0 14376:1.0 14775:1.0 14923:1.0 
3.592745498078412 123:1.0 607:1.0 915:1.0 1323:1.0 1814:1.0 2220:1.0 2628:1.0 2923:1.0 3309:1.0 3715:1.0 4123:1.0 4598:1.0 5007:1.0 5393:1.0 5799:1.0 6207:1.0 6556:1.0 6965:1.0 7351:1.0 7651:1.0 8060:1.0 8691:1.0 9154:1.0 9546:1.0 9793:1.0 10199:1.0 10607:1.0 11125:1.0 11533:1.0 12008:1.0 12417:1.0 12803:1.0 13019:1.0 13566:1.0 13961:1.0 14367:1.0 14775:1.0 14923:1.0 
3.592745498078412 260:1.0 597:1.0 915:1.0 1313:1.0 1619:1.0 2010:1.0 2408:1.0 3140:1.0 3555:1.0 3946:1.0 4344:1.0 4556:1.0 4951:1.0 5366:1.0 5757:1.0 6155:1.0 6703:1.0 7098:1.0 7513:1.0 7903:1.0 8298:1.0 8404:1.0 9098:1.0 9504:1.0 9829:1.0 10220:1.0 10618:1.0 10915:1.0 11313:1.0 11861:1.0 12256:1.0 12671:1.0 12851:1.0 13524:1.0 13934:1.0 14325:1.0 14723:1.0 15123:1.0 
3.592745498078412 89:1.0 594:1.0 910:1.0 1310:1.0 1767:1.0 2152:1.0 2552:1.0 3119:1.0 3535:1.0 3920:1.0 4320:1.0 4556:1.0 4951:1.0 5367:1.0 5752:1.0 6152:1.0 6766:1.0 7161:1.0 7577:1.0 7714:1.0 8109:1.0 8509:1.0 9119:1.0 9520:1.0 9830:1.0 10215:1.0 10615:1.0 10910:1.0 11310:1.0 11840:1.0 12235:1.0 12651:1.0 12851:1.0 13566:1.0 13977:1.0 14362:1.0 14762:1.0 14952:1.0 
0.9775396819908158 94:1.0 599:1.0 924:1.0 1315:1.0 1764:1.0 2166:1.0 2557:1.0 3125:1.0 3532:1.0 3934:1.0 4325:1.0 4552:1.0 4957:1.0 5364:1.0 5766:1.0 6157:1.0 6762:1.0 7167:1.0 7574:1.0 7710:1.0 8115:1.0 8515:1.0 9125:1.0 9534:1.0 9827:1.0 10229:1.0 10620:1.0 10924:1.0 11315:1.0 11836:1.0 12241:1.0 12648:1.0 12847:1.0 13562:1.0 13974:1.0 14376:1.0 14767:1.0 14957:1.0 
3.336952364968683 102:1.0 607:1.0 924:1.0 1323:1.0 1748:1.0 2166:1.0 2565:1.0 3123:1.0 3516:1.0 3934:1.0 4333:1.0 4555:1.0 4955:1.0 5348:1.0 5766:1.0 6165:1.0 6765:1.0 7165:1.0 7558:1.0 7713:1.0 8113:1.0 8513:1.0 9123:1.0 9534:1.0 9811:1.0 10229:1.0 10628:1.0 10924:1.0 11323:1.0 11839:1.0 12239:1.0 12632:1.0 12850:1.0 13565:1.0 13958:1.0 14376:1.0 14775:1.0 14965:1.0 
3.592745498078412 94:1.0 599:1.0 924:1.0 1315:1.0 1764:1.0 2166:1.0 2557:1.0 3125:1.0 3532:1.0 3934:1.0 4325:1.0 4552:1.0 4957:1.0 5364:1.0 5766:1.0 6157:1.0 6762:1.0 7167:1.0 7574:1.0 7710:1.0 8115:1.0 8515:1.0 9125:1.0 9534:1.0 9827:1.0 10229:1.0 10620:1.0 10924:1.0 11315:1.0 11836:1.0 12241:1.0 12648:1.0 12847:1.0 13562:1.0 13974:1.0 14376:1.0 14767:1.0 14957:1.0 
3.592745498078412 89:1.0 594:1.0 910:1.0 1310:1.0 1767:1.0 2152:1.0 2552:1.0 3119:1.0 3535:1.0 3920:1.0 4320:1.0 4556:1.0 4951:1.0 5367:1.0 5752:1.0 6152:1.0 6766:1.0 7161:1.0 7577:1.0 7714:1.0 8109:1.0 8509:1.0 9119:1.0 9520:1.0 9830:1.0 10215:1.0 10615:1.0 10910:1.0 11310:1.0 11840:1.0 12235:1.0 12651:1.0 12851:1.0 13566:1.0 13977:1.0 14362:1.0 14762:1.0 14952:1.0 
3.592745498078412 102:1.0 607:1.0 925:1.0 1323:1.0 1750:1.0 2167:1.0 2565:1.0 3124:1.0 3518:1.0 3935:1.0 4333:1.0 4562:1.0 4956:1.0 5350:1.0 5767:1.0 6165:1.0 6772:1.0 7166:1.0 7560:1.0 7720:1.0 8114:1.0 8514:1.0 9124:1.0 9535:1.0 9813:1.0 10230:1.0 10628:1.0 10925:1.0 11323:1.0 11846:1.0 12240:1.0 12634:1.0 12857:1.0 13572:1.0 13960:1.0 14377:1.0 14775:1.0 14965:1.0 
3.205882742835589 102:1.0 607:1.0 924:1.0 1323:1.0 1748:1.0 2166:1.0 2565:1.0 3123:1.0 3516:1.0 3934:1.0 4333:1.0 4555:1.0 4955:1.0 5348:1.0 5766:1.0 6165:1.0 6765:1.0 7165:1.0 7558:1.0 7713:1.0 8113:1.0 8513:1.0 9123:1.0 9534:1.0 9811:1.0 10229:1.0 10628:1.0 10924:1.0 11323:1.0 11839:1.0 12239:1.0 12632:1.0 12850:1.0 13565:1.0 13958:1.0 14376:1.0 14775:1.0 14965:1.0 
3.592745498078412 94:1.0 599:1.0 924:1.0 1315:1.0 1764:1.0 2166:1.0 2557:1.0 3125:1.0 3532:1.0 3934:1.0 4325:1.0 4552:1.0 4957:1.0 5364:1.0 5766:1.0 6157:1.0 6762:1.0 7167:1.0 7574:1.0 7710:1.0 8115:1.0 8515:1.0 9125:1.0 9534:1.0 9827:1.0 10229:1.0 10620:1.0 10924:1.0 11315:1.0 11836:1.0 12241:1.0 12648:1.0 12847:1.0 13562:1.0 13974:1.0 14376:1.0 14767:1.0 14957:1.0 
3.592745498078412 81:1.0 607:1.0 908:1.0 1323:1.0 1700:1.0 2087:1.0 2502:1.0 3119:1.0 3531:1.0 3918:1.0 4333:1.0 4555:1.0 4951:1.0 5363:1.0 5750:1.0 6165:1.0 6723:1.0 7119:1.0 7531:1.0 7713:1.0 8109:1.0 8740:1.0 9098:1.0 9497:1.0 9889:1.0 10276:1.0 10691:1.0 10908:1.0 11323:1.0 11734:1.0 12130:1.0 12542:1.0 12913:1.0 13565:1.0 13973:1.0 14360:1.0 14775:1.0 14902:1.0 
3.592745498078412 81:1.0 607:1.0 912:1.0 1323:1.0 1701:1.0 2091:1.0 2502:1.0 3119:1.0 3532:1.0 3922:1.0 4333:1.0 4555:1.0 4951:1.0 5364:1.0 5754:1.0 6165:1.0 6723:1.0 7119:1.0 7532:1.0 7713:1.0 8109:1.0 8740:1.0 9098:1.0 9501:1.0 9890:1.0 10280:1.0 10691:1.0 10912:1.0 11323:1.0 11734:1.0 12130:1.0 12543:1.0 12913:1.0 13565:1.0 13974:1.0 14364:1.0 14775:1.0 14902:1.0 
3.592745498078412 113:1.0 492:1.0 921:1.0 1313:1.0 1806:1.0 2205:1.0 2597:1.0 3119:1.0 3532:1.0 3931:1.0 4323:1.0 4550:1.0 4951:1.0 5364:1.0 5763:1.0 6155:1.0 6571:1.0 6972:1.0 7385:1.0 7708:1.0 8109:1.0 8719:1.0 8972:1.0 9384:1.0 9932:1.0 10331:1.0 10723:1.0 11089:1.0 11481:1.0 11729:1.0 12130:1.0 12543:1.0 12866:1.0 13560:1.0 13974:1.0 14373:1.0 14765:1.0 14808:1.0 
3.592745498078412 123:1.0 502:1.0 921:1.0 1323:1.0 1806:1.0 2205:1.0 2607:1.0 3129:1.0 3532:1.0 3931:1.0 4333:1.0 4556:1.0 4961:1.0 5364:1.0 5763:1.0 6165:1.0 6577:1.0 6982:1.0 7385:1.0 7714:1.0 8119:1.0 8729:1.0 8982:1.0 9384:1.0 9932:1.0 10331:1.0 10733:1.0 11089:1.0 11491:1.0 11735:1.0 12140:1.0 12543:1.0 12872:1.0 13566:1.0 13974:1.0 14373:1.0 14775:1.0 14818:1.0 
3.592745498078412 123:1.0 502:1.0 917:1.0 1323:1.0 1805:1.0 2201:1.0 2607:1.0 3129:1.0 3531:1.0 3927:1.0 4333:1.0 4561:1.0 4961:1.0 5363:1.0 5759:1.0 6165:1.0 6582:1.0 6982:1.0 7384:1.0 7719:1.0 8119:1.0 8729:1.0 8982:1.0 9380:1.0 9931:1.0 10327:1.0 10733:1.0 11085:1.0 11491:1.0 11740:1.0 12140:1.0 12542:1.0 12877:1.0 13571:1.0 13973:1.0 14369:1.0 14775:1.0 14818:1.0 
3.592745498078412 123:1.0 502:1.0 906:1.0 1323:1.0 1805:1.0 2190:1.0 2607:1.0 3129:1.0 3531:1.0 3916:1.0 4333:1.0 4557:1.0 4961:1.0 5363:1.0 5748:1.0 6165:1.0 6578:1.0 6982:1.0 7384:1.0 7715:1.0 8119:1.0 8729:1.0 8982:1.0 9369:1.0 9931:1.0 10316:1.0 10733:1.0 11074:1.0 11491:1.0 11736:1.0 12140:1.0 12542:1.0 12873:1.0 13567:1.0 13973:1.0 14358:1.0 14775:1.0 14818:1.0 
3.592745498078412 113:1.0 492:1.0 921:1.0 1313:1.0 1805:1.0 2205:1.0 2597:1.0 3119:1.0 3531:1.0 3931:1.0 4323:1.0 4556:1.0 4951:1.0 5363:1.0 5763:1.0 6155:1.0 6577:1.0 6972:1.0 7384:1.0 7714:1.0 8109:1.0 8719:1.0 8972:1.0 9384:1.0 9931:1.0 10331:1.0 10723:1.0 11089:1.0 11481:1.0 11735:1.0 12130:1.0 12542:1.0 12872:1.0 13566:1.0 13973:1.0 14373:1.0 14765:1.0 14808:1.0 
1.8350256591695189 123:1.0 502:1.0 909:1.0 1323:1.0 1805:1.0 2193:1.0 2607:1.0 3119:1.0 3531:1.0 3919:1.0 4333:1.0 4557:1.0 4951:1.0 5363:1.0 5751:1.0 6165:1.0 6578:1.0 6972:1.0 7384:1.0 7715:1.0 8109:1.0 8719:1.0 8972:1.0 9372:1.0 9931:1.0 10319:1.0 10733:1.0 11077:1.0 11491:1.0 11736:1.0 12130:1.0 12542:1.0 12873:1.0 13567:1.0 13973:1.0 14361:1.0 14775:1.0 14818:1.0 
3.592745498078412 123:1.0 502:1.0 922:1.0 1323:1.0 1806:1.0 2206:1.0 2607:1.0 3119:1.0 3532:1.0 3932:1.0 4333:1.0 4562:1.0 4951:1.0 5364:1.0 5764:1.0 6165:1.0 6583:1.0 6972:1.0 7385:1.0 7720:1.0 8109:1.0 8719:1.0 8972:1.0 9385:1.0 9932:1.0 10332:1.0 10733:1.0 11090:1.0 11491:1.0 11741:1.0 12130:1.0 12543:1.0 12878:1.0 13572:1.0 13974:1.0 14374:1.0 14775:1.0 14818:1.0 
1.057703843907743 123:1.0 502:1.0 912:1.0 1323:1.0 1806:1.0 2196:1.0 2607:1.0 3119:1.0 3532:1.0 3922:1.0 4333:1.0 4555:1.0 4951:1.0 5364:1.0 5754:1.0 6165:1.0 6576:1.0 6972:1.0 7385:1.0 7713:1.0 8109:1.0 8719:1.0 8972:1.0 9375:1.0 9932:1.0 10322:1.0 10733:1.0 11080:1.0 11491:1.0 11734:1.0 12130:1.0 12543:1.0 12871:1.0 13565:1.0 13974:1.0 14364:1.0 14775:1.0 14818:1.0 
3.592745498078412 123:1.0 502:1.0 916:1.0 1323:1.0 1805:1.0 2200:1.0 2607:1.0 3119:1.0 3531:1.0 3926:1.0 4333:1.0 4557:1.0 4951:1.0 5363:1.0 5758:1.0 6165:1.0 6578:1.0 6972:1.0 7384:1.0 7715:1.0 8109:1.0 8719:1.0 8972:1.0 9379:1.0 9931:1.0 10326:1.0 10733:1.0 11084:1.0 11491:1.0 11736:1.0 12130:1.0 12542:1.0 12873:1.0 13567:1.0 13973:1.0 14368:1.0 14775:1.0 14818:1.0 
2.313535363905652 123:1.0 502:1.0 908:1.0 1323:1.0 1806:1.0 2192:1.0 2607:1.0 3119:1.0 3532:1.0 3918:1.0 4333:1.0 4565:1.0 4951:1.0 5364:1.0 5750:1.0 6165:1.0 6586:1.0 6972:1.0 7385:1.0 7723:1.0 8109:1.0 8719:1.0 8972:1.0 9371:1.0 9932:1.0 10318:1.0 10733:1.0 11076:1.0 11491:1.0 11744:1.0 12130:1.0 12543:1.0 12881:1.0 13575:1.0 13974:1.0 14360:1.0 14775:1.0 14818:1.0 
3.592745498078412 123:1.0 502:1.0 917:1.0 1323:1.0 1805:1.0 2201:1.0 2607:1.0 3123:1.0 3531:1.0 3927:1.0 4333:1.0 4562:1.0 4955:1.0 5363:1.0 5759:1.0 6165:1.0 6583:1.0 6976:1.0 7384:1.0 7720:1.0 8113:1.0 8723:1.0 8976:1.0 9380:1.0 9931:1.0 10327:1.0 10733:1.0 11085:1.0 11491:1.0 11741:1.0 12134:1.0 12542:1.0 12878:1.0 13572:1.0 13973:1.0 14369:1.0 14775:1.0 14818:1.0 
0.6095175482728967 123:1.0 502:1.0 915:1.0 1323:1.0 1805:1.0 2199:1.0 2607:1.0 3119:1.0 3531:1.0 3925:1.0 4333:1.0 4556:1.0 4951:1.0 5363:1.0 5757:1.0 6165:1.0 6577:1.0 6972:1.0 7384:1.0 7714:1.0 8109:1.0 8719:1.0 8972:1.0 9378:1.0 9931:1.0 10325:1.0 10733:1.0 11083:1.0 11491:1.0 11735:1.0 12130:1.0 12542:1.0 12872:1.0 13566:1.0 13973:1.0 14367:1.0 14775:1.0 14818:1.0 
3.415977668356784 123:1.0 502:1.0 908:1.0 1323:1.0 1805:1.0 2192:1.0 2607:1.0 3119:1.0 3531:1.0 3918:1.0 4333:1.0 4555:1.0 4951:1.0 5363:1.0 5750:1.0 6165:1.0 6576:1.0 6972:1.0 7384:1.0 7713:1.0 8109:1.0 8719:1.0 8972:1.0 9371:1.0 9931:1.0 10318:1.0 10733:1.0 11076:1.0 11491:1.0 11734:1.0 12130:1.0 12542:1.0 12871:1.0 13565:1.0 13973:1.0 14360:1.0 14775:1.0 14818:1.0 
3.592745498078412 115:1.0 599:1.0 920:1.0 1315:1.0 1806:1.0 2204:1.0 2599:1.0 3119:1.0 3532:1.0 3930:1.0 4325:1.0 4561:1.0 4951:1.0 5364:1.0 5762:1.0 6157:1.0 6582:1.0 6972:1.0 7385:1.0 7719:1.0 8109:1.0 8719:1.0 8972:1.0 9383:1.0 9701:1.0 10099:1.0 10494:1.0 11088:1.0 11483:1.0 11740:1.0 12130:1.0 12543:1.0 12877:1.0 13571:1.0 13974:1.0 14372:1.0 14767:1.0 14810:1.0 
3.592745498078412 123:1.0 607:1.0 917:1.0 1323:1.0 1805:1.0 2201:1.0 2607:1.0 3129:1.0 3531:1.0 3927:1.0 4333:1.0 4561:1.0 4961:1.0 5363:1.0 5759:1.0 6165:1.0 6582:1.0 6982:1.0 7384:1.0 7719:1.0 8119:1.0 8729:1.0 8982:1.0 9380:1.0 9700:1.0 10096:1.0 10502:1.0 11085:1.0 11491:1.0 11740:1.0 12140:1.0 12542:1.0 12877:1.0 13571:1.0 13973:1.0 14369:1.0 14775:1.0 14818:1.0 
3.592745498078412 354:1.0 607:1.0 923:1.0 1323:1.0 1700:1.0 2102:1.0 2502:1.0 3118:1.0 3531:1.0 3933:1.0 4333:1.0 4772:1.0 5160:1.0 5573:1.0 5975:1.0 6375:1.0 6751:1.0 7139:1.0 7552:1.0 7720:1.0 8108:1.0 8571:1.0 9118:1.0 9533:1.0 9763:1.0 10165:1.0 10565:1.0 10923:1.0 11323:1.0 11741:1.0 12129:1.0 12542:1.0 12983:1.0 13572:1.0 13973:1.0 14375:1.0 14775:1.0 15070:1.0 
3.592745498078412 354:1.0 607:1.0 922:1.0 1323:1.0 1701:1.0 2101:1.0 2502:1.0 3119:1.0 3532:1.0 3932:1.0 4333:1.0 4763:1.0 5161:1.0 5574:1.0 5974:1.0 6375:1.0 6742:1.0 7140:1.0 7553:1.0 7711:1.0 8109:1.0 8572:1.0 9119:1.0 9532:1.0 9764:1.0 10164:1.0 10565:1.0 10922:1.0 11323:1.0 11732:1.0 12130:1.0 12543:1.0 12974:1.0 13563:1.0 13974:1.0 14374:1.0 14775:1.0 15070:1.0 
3.592745498078412 354:1.0 607:1.0 909:1.0 1323:1.0 1700:1.0 2088:1.0 2502:1.0 3119:1.0 3531:1.0 3919:1.0 4333:1.0 4767:1.0 5161:1.0 5573:1.0 5961:1.0 6375:1.0 6746:1.0 7140:1.0 7552:1.0 7715:1.0 8109:1.0 8572:1.0 9119:1.0 9519:1.0 9763:1.0 10151:1.0 10565:1.0 10909:1.0 11323:1.0 11736:1.0 12130:1.0 12542:1.0 12978:1.0 13567:1.0 13973:1.0 14361:1.0 14775:1.0 15070:1.0 
3.592745498078412 354:1.0 607:1.0 921:1.0 1323:1.0 1701:1.0 2100:1.0 2502:1.0 3119:1.0 3532:1.0 3931:1.0 4333:1.0 4770:1.0 5161:1.0 5574:1.0 5973:1.0 6375:1.0 6749:1.0 7140:1.0 7553:1.0 7718:1.0 8109:1.0 8572:1.0 9119:1.0 9531:1.0 9764:1.0 10163:1.0 10565:1.0 10921:1.0 11323:1.0 11739:1.0 12130:1.0 12543:1.0 12981:1.0 13570:1.0 13974:1.0 14373:1.0 14775:1.0 15070:1.0 
3.592745498078412 354:1.0 607:1.0 917:1.0 1323:1.0 1700:1.0 2096:1.0 2502:1.0 3129:1.0 3531:1.0 3927:1.0 4333:1.0 4771:1.0 5171:1.0 5573:1.0 5969:1.0 6375:1.0 6750:1.0 7150:1.0 7552:1.0 7719:1.0 8119:1.0 8582:1.0 9129:1.0 9527:1.0 9763:1.0 10159:1.0 10565:1.0 10917:1.0 11323:1.0 11740:1.0 12140:1.0 12542:1.0 12982:1.0 13571:1.0 13973:1.0 14369:1.0 14775:1.0 15070:1.0 
3.592745498078412 354:1.0 607:1.0 916:1.0 1323:1.0 1700:1.0 2095:1.0 2502:1.0 3119:1.0 3531:1.0 3926:1.0 4333:1.0 4767:1.0 5161:1.0 5573:1.0 5968:1.0 6375:1.0 6746:1.0 7140:1.0 7552:1.0 7715:1.0 8109:1.0 8572:1.0 9119:1.0 9526:1.0 9763:1.0 10158:1.0 10565:1.0 10916:1.0 11323:1.0 11736:1.0 12130:1.0 12542:1.0 12978:1.0 13567:1.0 13973:1.0 14368:1.0 14775:1.0 15070:1.0 
3.592745498078412 346:1.0 599:1.0 924:1.0 1315:1.0 1701:1.0 2103:1.0 2494:1.0 3125:1.0 3532:1.0 3934:1.0 4325:1.0 4762:1.0 5167:1.0 5574:1.0 5976:1.0 6367:1.0 6741:1.0 7146:1.0 7553:1.0 7710:1.0 8115:1.0 8578:1.0 9125:1.0 9534:1.0 9764:1.0 10166:1.0 10557:1.0 10924:1.0 11315:1.0 11731:1.0 12136:1.0 12543:1.0 12973:1.0 13562:1.0 13974:1.0 14376:1.0 14767:1.0 15062:1.0 
3.592745498078412 354:1.0 607:1.0 909:1.0 1323:1.0 1701:1.0 2088:1.0 2502:1.0 3133:1.0 3532:1.0 3919:1.0 4333:1.0 4768:1.0 5175:1.0 5574:1.0 5961:1.0 6375:1.0 6747:1.0 7154:1.0 7553:1.0 7716:1.0 8123:1.0 8586:1.0 9133:1.0 9519:1.0 9764:1.0 10151:1.0 10565:1.0 10909:1.0 11323:1.0 11737:1.0 12144:1.0 12543:1.0 12979:1.0 13568:1.0 13974:1.0 14361:1.0 14775:1.0 15070:1.0 
3.592745498078412 354:1.0 607:1.0 913:1.0 1323:1.0 1700:1.0 2092:1.0 2502:1.0 3119:1.0 3531:1.0 3923:1.0 4333:1.0 4772:1.0 5161:1.0 5573:1.0 5965:1.0 6375:1.0 6751:1.0 7140:1.0 7552:1.0 7720:1.0 8109:1.0 8572:1.0 9119:1.0 9523:1.0 9763:1.0 10155:1.0 10565:1.0 10913:1.0 11323:1.0 11741:1.0 12130:1.0 12542:1.0 12983:1.0 13572:1.0 13973:1.0 14365:1.0 14775:1.0 15070:1.0 
3.592745498078412 354:1.0 607:1.0 919:1.0 1323:1.0 1701:1.0 2098:1.0 2502:1.0 3119:1.0 3532:1.0 3929:1.0 4333:1.0 4773:1.0 5161:1.0 5574:1.0 5971:1.0 6375:1.0 6752:1.0 7140:1.0 7553:1.0 7721:1.0 8109:1.0 8572:1.0 9119:1.0 9529:1.0 9764:1.0 10161:1.0 10565:1.0 10919:1.0 11323:1.0 11742:1.0 12130:1.0 12543:1.0 12984:1.0 13573:1.0 13974:1.0 14371:1.0 14775:1.0 15070:1.0 
3.592745498078412 354:1.0 607:1.0 924:1.0 1323:1.0 1685:1.0 2103:1.0 2502:1.0 3123:1.0 3516:1.0 3934:1.0 4333:1.0 4765:1.0 5165:1.0 5558:1.0 5976:1.0 6375:1.0 6744:1.0 7144:1.0 7537:1.0 7713:1.0 8113:1.0 8576:1.0 9123:1.0 9534:1.0 9748:1.0 10166:1.0 10565:1.0 10924:1.0 11323:1.0 11734:1.0 12134:1.0 12527:1.0 12976:1.0 13565:1.0 13958:1.0 14376:1.0 14775:1.0 15070:1.0 
3.592745498078412 354:1.0 607:1.0 908:1.0 1323:1.0 1700:1.0 2087:1.0 2502:1.0 3119:1.0 3531:1.0 3918:1.0 4333:1.0 4765:1.0 5161:1.0 5573:1.0 5960:1.0 6375:1.0 6744:1.0 7140:1.0 7552:1.0 7713:1.0 8109:1.0 8572:1.0 9119:1.0 9518:1.0 9763:1.0 10150:1.0 10565:1.0 10908:1.0 11323:1.0 11734:1.0 12130:1.0 12542:1.0 12976:1.0 13565:1.0 13973:1.0 14360:1.0 14775:1.0 15070:1.0 
3.592745498078412 354:1.0 607:1.0 921:1.0 1323:1.0 1700:1.0 2100:1.0 2502:1.0 3123:1.0 3531:1.0 3931:1.0 4333:1.0 4772:1.0 5165:1.0 5573:1.0 5973:1.0 6375:1.0 6751:1.0 7144:1.0 7552:1.0 7720:1.0 8113:1.0 8576:1.0 9123:1.0 9531:1.0 9763:1.0 10163:1.0 10565:1.0 10921:1.0 11323:1.0 11741:1.0 12134:1.0 12542:1.0 12983:1.0 13572:1.0 13973:1.0 14373:1.0 14775:1.0 15070:1.0 
3.592745498078412 344:1.0 597:1.0 921:1.0 1313:1.0 1701:1.0 2100:1.0 2492:1.0 3119:1.0 3532:1.0 3931:1.0 4323:1.0 4760:1.0 5161:1.0 5574:1.0 5973:1.0 6365:1.0 6739:1.0 7140:1.0 7553:1.0 7708:1.0 8109:1.0 8572:1.0 9119:1.0 9531:1.0 9764:1.0 10163:1.0 10555:1.0 10921:1.0 11313:1.0 11729:1.0 12130:1.0 12543:1.0 12971:1.0 13560:1.0 13974:1.0 14373:1.0 14765:1.0 15060:1.0 
3.592745498078412 346:1.0 599:1.0 920:1.0 1315:1.0 1701:1.0 2099:1.0 2494:1.0 3119:1.0 3532:1.0 3930:1.0 4325:1.0 4771:1.0 5161:1.0 5574:1.0 5972:1.0 6367:1.0 6750:1.0 7140:1.0 7553:1.0 7719:1.0 8109:1.0 8572:1.0 9119:1.0 9530:1.0 9764:1.0 10162:1.0 10557:1.0 10920:1.0 11315:1.0 11740:1.0 12130:1.0 12543:1.0 12982:1.0 13571:1.0 13974:1.0 14372:1.0 14767:1.0 15062:1.0 
3.592745498078412 354:1.0 607:1.0 912:1.0 1323:1.0 1701:1.0 2091:1.0 2502:1.0 3119:1.0 3532:1.0 3922:1.0 4333:1.0 4765:1.0 5161:1.0 5574:1.0 5964:1.0 6375:1.0 6744:1.0 7140:1.0 7553:1.0 7713:1.0 8109:1.0 8572:1.0 9119:1.0 9522:1.0 9764:1.0 10154:1.0 10565:1.0 10912:1.0 11323:1.0 11734:1.0 12130:1.0 12543:1.0 12976:1.0 13565:1.0 13974:1.0 14364:1.0 14775:1.0 15070:1.0 
3.522077462452837 257:1.0 594:1.0 917:1.0 1310:1.0 1752:1.0 2159:1.0 2552:1.0 3143:1.0 3541:1.0 3948:1.0 4341:1.0 4553:1.0 4954:1.0 5352:1.0 5759:1.0 6152:1.0 6721:1.0 7122:1.0 7520:1.0 7711:1.0 8112:1.0 8722:1.0 9122:1.0 9527:1.0 9941:1.0 10348:1.0 10741:1.0 10917:1.0 11310:1.0 11795:1.0 12196:1.0 12594:1.0 13121:1.0 13353:1.0 13752:1.0 14159:1.0 14552:1.0 14805:1.0 
3.592745498078412 81:1.0 607:1.0 909:1.0 1323:1.0 1764:1.0 2151:1.0 2565:1.0 3154:1.0 3553:1.0 3940:1.0 4354:1.0 4558:1.0 4965:1.0 5364:1.0 5751:1.0 6165:1.0 6726:1.0 7133:1.0 7532:1.0 7926:1.0 8333:1.0 8733:1.0 8860:1.0 9246:1.0 9785:1.0 10172:1.0 10586:1.0 11119:1.0 11533:1.0 11821:1.0 12228:1.0 12627:1.0 12874:1.0 13568:1.0 13974:1.0 14361:1.0 14775:1.0 14839:1.0 
3.592745498078412 81:1.0 607:1.0 924:1.0 1323:1.0 1748:1.0 2166:1.0 2565:1.0 3144:1.0 3537:1.0 3955:1.0 4354:1.0 4555:1.0 4955:1.0 5348:1.0 5766:1.0 6165:1.0 6723:1.0 7123:1.0 7516:1.0 7923:1.0 8323:1.0 8723:1.0 8850:1.0 9261:1.0 9769:1.0 10187:1.0 10586:1.0 11134:1.0 11533:1.0 11818:1.0 12218:1.0 12611:1.0 12871:1.0 13565:1.0 13958:1.0 14376:1.0 14775:1.0 14839:1.0 
3.592745498078412 81:1.0 607:1.0 919:1.0 1323:1.0 1755:1.0 2161:1.0 2565:1.0 3142:1.0 3544:1.0 3950:1.0 4354:1.0 4564:1.0 4953:1.0 5355:1.0 5761:1.0 6165:1.0 6732:1.0 7121:1.0 7523:1.0 7932:1.0 8321:1.0 8721:1.0 8848:1.0 9256:1.0 9776:1.0 10182:1.0 10586:1.0 11129:1.0 11533:1.0 11827:1.0 12216:1.0 12618:1.0 12880:1.0 13574:1.0 13965:1.0 14371:1.0 14775:1.0 14839:1.0 
3.366290612623096 81:1.0 607:1.0 915:1.0 1323:1.0 1752:1.0 2157:1.0 2565:1.0 3152:1.0 3541:1.0 3946:1.0 4354:1.0 4563:1.0 4963:1.0 5352:1.0 5757:1.0 6165:1.0 6731:1.0 7131:1.0 7520:1.0 7931:1.0 8331:1.0 8731:1.0 8858:1.0 9252:1.0 9773:1.0 10178:1.0 10586:1.0 11125:1.0 11533:1.0 11826:1.0 12226:1.0 12615:1.0 12879:1.0 13573:1.0 13962:1.0 14367:1.0 14775:1.0 14839:1.0 
3.1561733619098664 81:1.0 607:1.0 909:1.0 1323:1.0 1765:1.0 2151:1.0 2565:1.0 3152:1.0 3554:1.0 3940:1.0 4354:1.0 4553:1.0 4963:1.0 5365:1.0 5751:1.0 6165:1.0 6721:1.0 7131:1.0 7533:1.0 7921:1.0 8331:1.0 8731:1.0 8858:1.0 9246:1.0 9786:1.0 10172:1.0 10586:1.0 11119:1.0 11533:1.0 11816:1.0 12226:1.0 12628:1.0 12869:1.0 13563:1.0 13975:1.0 14361:1.0 14775:1.0 14839:1.0 
3.592745498078412 81:1.0 607:1.0 922:1.0 1323:1.0 1764:1.0 2164:1.0 2565:1.0 3140:1.0 3553:1.0 3953:1.0 4354:1.0 4553:1.0 4951:1.0 5364:1.0 5764:1.0 6165:1.0 6721:1.0 7119:1.0 7532:1.0 7921:1.0 8319:1.0 8719:1.0 8846:1.0 9259:1.0 9785:1.0 10185:1.0 10586:1.0 11132:1.0 11533:1.0 11816:1.0 12214:1.0 12627:1.0 12869:1.0 13563:1.0 13974:1.0 14374:1.0 14775:1.0 14839:1.0 
3.592745498078412 123:1.0 607:1.0 924:1.0 1323:1.0 1622:1.0 2040:1.0 2439:1.0 3123:1.0 3516:1.0 3934:1.0 4333:1.0 4555:1.0 4955:1.0 5348:1.0 5766:1.0 6165:1.0 6723:1.0 7123:1.0 7516:1.0 7923:1.0 8323:1.0 8723:1.0 8934:1.0 9345:1.0 9769:1.0 10187:1.0 10586:1.0 11134:1.0 11533:1.0 11734:1.0 12134:1.0 12527:1.0 12976:1.0 13565:1.0 13958:1.0 14376:1.0 14775:1.0 15133:1.0 
3.592745498078412 123:1.0 607:1.0 925:1.0 1323:1.0 1624:1.0 2041:1.0 2439:1.0 3127:1.0 3518:1.0 3935:1.0 4333:1.0 4557:1.0 4959:1.0 5350:1.0 5767:1.0 6165:1.0 6725:1.0 7127:1.0 7518:1.0 7925:1.0 8327:1.0 8727:1.0 8938:1.0 9346:1.0 9771:1.0 10188:1.0 10586:1.0 11135:1.0 11533:1.0 11736:1.0 12138:1.0 12529:1.0 12978:1.0 13567:1.0 13960:1.0 14377:1.0 14775:1.0 15133:1.0 
1.9144573666116032 333:1.0 607:1.0 1177:1.0 1575:1.0 1666:1.0 2083:1.0 2481:1.0 2872:1.0 3266:1.0 3683:1.0 4081:1.0 4595:1.0 4998:1.0 5392:1.0 5809:1.0 6207:1.0 6574:1.0 6977:1.0 7371:1.0 7606:1.0 8009:1.0 8682:1.0 8872:1.0 9283:1.0 9960:1.0 10377:1.0 10775:1.0 11135:1.0 11533:1.0 11669:1.0 12072:1.0 12466:1.0 12995:1.0 13206:1.0 13603:1.0 14020:1.0 14418:1.0 14881:1.0 
3.592745498078412 323:1.0 597:1.0 1173:1.0 1565:1.0 1677:1.0 2079:1.0 2471:1.0 2866:1.0 3277:1.0 3679:1.0 4071:1.0 4604:1.0 4992:1.0 5403:1.0 5805:1.0 6197:1.0 6583:1.0 6971:1.0 7382:1.0 7615:1.0 8003:1.0 8676:1.0 8866:1.0 9279:1.0 9971:1.0 10373:1.0 10765:1.0 11131:1.0 11523:1.0 11678:1.0 12066:1.0 12477:1.0 13004:1.0 13215:1.0 13614:1.0 14016:1.0 14408:1.0 14871:1.0 
1.0184443645992687 333:1.0 607:1.0 1177:1.0 1575:1.0 1666:1.0 2083:1.0 2481:1.0 2875:1.0 3266:1.0 3683:1.0 4081:1.0 4599:1.0 5001:1.0 5392:1.0 5809:1.0 6207:1.0 6578:1.0 6980:1.0 7371:1.0 7610:1.0 8012:1.0 8685:1.0 8875:1.0 9283:1.0 9960:1.0 10377:1.0 10775:1.0 11135:1.0 11533:1.0 11673:1.0 12075:1.0 12466:1.0 12999:1.0 13210:1.0 13603:1.0 14020:1.0 14418:1.0 14881:1.0 
3.592745498078412 333:1.0 607:1.0 1176:1.0 1575:1.0 1664:1.0 2082:1.0 2481:1.0 2871:1.0 3264:1.0 3682:1.0 4081:1.0 4597:1.0 4997:1.0 5390:1.0 5808:1.0 6207:1.0 6576:1.0 6976:1.0 7369:1.0 7608:1.0 8008:1.0 8681:1.0 8871:1.0 9282:1.0 9958:1.0 10376:1.0 10775:1.0 11134:1.0 11533:1.0 11671:1.0 12071:1.0 12464:1.0 12997:1.0 13208:1.0 13601:1.0 14019:1.0 14418:1.0 14881:1.0 
3.592745498078412 333:1.0 607:1.0 1175:1.0 1575:1.0 1679:1.0 2081:1.0 2481:1.0 2866:1.0 3279:1.0 3681:1.0 4081:1.0 4604:1.0 4992:1.0 5405:1.0 5807:1.0 6207:1.0 6583:1.0 6971:1.0 7384:1.0 7615:1.0 8003:1.0 8676:1.0 8866:1.0 9281:1.0 9973:1.0 10375:1.0 10775:1.0 11133:1.0 11533:1.0 11678:1.0 12066:1.0 12479:1.0 13004:1.0 13215:1.0 13616:1.0 14018:1.0 14418:1.0 14881:1.0 
3.160735794082938 333:1.0 607:1.0 1177:1.0 1575:1.0 1664:1.0 2083:1.0 2481:1.0 2869:1.0 3264:1.0 3683:1.0 4081:1.0 4599:1.0 4995:1.0 5390:1.0 5809:1.0 6207:1.0 6578:1.0 6974:1.0 7369:1.0 7610:1.0 8006:1.0 8679:1.0 8869:1.0 9283:1.0 9958:1.0 10377:1.0 10775:1.0 11135:1.0 11533:1.0 11673:1.0 12069:1.0 12464:1.0 12999:1.0 13210:1.0 13601:1.0 14020:1.0 14418:1.0 14881:1.0 
3.2139201396950194 333:1.0 607:1.0 1177:1.0 1575:1.0 1683:1.0 2083:1.0 2481:1.0 2867:1.0 3283:1.0 3683:1.0 4081:1.0 4598:1.0 4993:1.0 5409:1.0 5809:1.0 6207:1.0 6577:1.0 6972:1.0 7388:1.0 7609:1.0 8004:1.0 8677:1.0 8867:1.0 9283:1.0 9977:1.0 10377:1.0 10775:1.0 11135:1.0 11533:1.0 11672:1.0 12067:1.0 12483:1.0 12998:1.0 13209:1.0 13620:1.0 14020:1.0 14418:1.0 14881:1.0 
1.493396859619923 316:1.0 590:1.0 1177:1.0 1558:1.0 1668:1.0 2083:1.0 2464:1.0 2867:1.0 3268:1.0 3683:1.0 4064:1.0 4598:1.0 4993:1.0 5394:1.0 5809:1.0 6190:1.0 6577:1.0 6972:1.0 7373:1.0 7609:1.0 8004:1.0 8677:1.0 8867:1.0 9283:1.0 9962:1.0 10377:1.0 10758:1.0 11135:1.0 11516:1.0 11672:1.0 12067:1.0 12468:1.0 12998:1.0 13209:1.0 13605:1.0 14020:1.0 14401:1.0 14864:1.0 
0.6508335595681043 333:1.0 607:1.0 1177:1.0 1575:1.0 1667:1.0 2083:1.0 2481:1.0 2872:1.0 3267:1.0 3683:1.0 4081:1.0 4605:1.0 4998:1.0 5393:1.0 5809:1.0 6207:1.0 6584:1.0 6977:1.0 7372:1.0 7616:1.0 8009:1.0 8682:1.0 8872:1.0 9283:1.0 9961:1.0 10377:1.0 10775:1.0 11135:1.0 11533:1.0 11679:1.0 12072:1.0 12467:1.0 13005:1.0 13216:1.0 13604:1.0 14020:1.0 14418:1.0 14881:1.0 
3.592745498078412 333:1.0 607:1.0 1167:1.0 1575:1.0 1667:1.0 2073:1.0 2481:1.0 2881:1.0 3267:1.0 3673:1.0 4081:1.0 4598:1.0 5007:1.0 5393:1.0 5799:1.0 6207:1.0 6577:1.0 6986:1.0 7372:1.0 7609:1.0 8018:1.0 8691:1.0 8881:1.0 9273:1.0 9961:1.0 10367:1.0 10775:1.0 11125:1.0 11533:1.0 11672:1.0 12081:1.0 12467:1.0 12998:1.0 13209:1.0 13604:1.0 14010:1.0 14418:1.0 14881:1.0 
3.592745498078412 333:1.0 607:1.0 1173:1.0 1575:1.0 1666:1.0 2079:1.0 2481:1.0 2881:1.0 3266:1.0 3679:1.0 4081:1.0 4598:1.0 5007:1.0 5392:1.0 5805:1.0 6207:1.0 6577:1.0 6986:1.0 7371:1.0 7609:1.0 8018:1.0 8691:1.0 8881:1.0 9279:1.0 9960:1.0 10373:1.0 10775:1.0 11131:1.0 11533:1.0 11672:1.0 12081:1.0 12466:1.0 12998:1.0 13209:1.0 13603:1.0 14016:1.0 14418:1.0 14881:1.0 
3.592745498078412 333:1.0 607:1.0 1161:1.0 1575:1.0 1680:1.0 2067:1.0 2481:1.0 2873:1.0 3280:1.0 3667:1.0 4081:1.0 4600:1.0 4999:1.0 5406:1.0 5793:1.0 6207:1.0 6579:1.0 6978:1.0 7385:1.0 7611:1.0 8010:1.0 8683:1.0 8873:1.0 9267:1.0 9974:1.0 10361:1.0 10775:1.0 11119:1.0 11533:1.0 11674:1.0 12073:1.0 12480:1.0 13000:1.0 13211:1.0 13617:1.0 14004:1.0 14418:1.0 14881:1.0 
3.592745498078412 317:1.0 591:1.0 1176:1.0 1559:1.0 1666:1.0 2082:1.0 2465:1.0 2866:1.0 3266:1.0 3682:1.0 4065:1.0 4593:1.0 4992:1.0 5392:1.0 5808:1.0 6191:1.0 6572:1.0 6971:1.0 7371:1.0 7604:1.0 8003:1.0 8676:1.0 8866:1.0 9282:1.0 9960:1.0 10376:1.0 10759:1.0 11134:1.0 11517:1.0 11667:1.0 12066:1.0 12466:1.0 12993:1.0 13204:1.0 13603:1.0 14019:1.0 14402:1.0 14865:1.0 
1.5736885238027314 333:1.0 607:1.0 1177:1.0 1575:1.0 1675:1.0 2083:1.0 2481:1.0 2879:1.0 3275:1.0 3683:1.0 4081:1.0 4590:1.0 5005:1.0 5401:1.0 5809:1.0 6207:1.0 6569:1.0 6984:1.0 7380:1.0 7601:1.0 8016:1.0 8689:1.0 8879:1.0 9283:1.0 9969:1.0 10377:1.0 10775:1.0 11135:1.0 11533:1.0 11664:1.0 12079:1.0 12475:1.0 12990:1.0 13201:1.0 13612:1.0 14020:1.0 14418:1.0 14881:1.0 
2.2534868648764923 316:1.0 590:1.0 1177:1.0 1558:1.0 1668:1.0 2083:1.0 2464:1.0 2867:1.0 3268:1.0 3683:1.0 4064:1.0 4593:1.0 4993:1.0 5394:1.0 5809:1.0 6190:1.0 6572:1.0 6972:1.0 7373:1.0 7604:1.0 8004:1.0 8677:1.0 8867:1.0 9283:1.0 9962:1.0 10377:1.0 10758:1.0 11135:1.0 11516:1.0 11667:1.0 12067:1.0 12468:1.0 12993:1.0 13204:1.0 13605:1.0 14020:1.0 14401:1.0 14864:1.0 
3.592745498078412 323:1.0 597:1.0 1167:1.0 1565:1.0 1682:1.0 2073:1.0 2471:1.0 2867:1.0 3282:1.0 3673:1.0 4071:1.0 4598:1.0 4993:1.0 5408:1.0 5799:1.0 6197:1.0 6577:1.0 6972:1.0 7387:1.0 7609:1.0 8004:1.0 8677:1.0 8867:1.0 9273:1.0 9976:1.0 10367:1.0 10765:1.0 11125:1.0 11523:1.0 11672:1.0 12067:1.0 12482:1.0 12998:1.0 13209:1.0 13619:1.0 14010:1.0 14408:1.0 14871:1.0 
3.592745498078412 333:1.0 607:1.0 1174:1.0 1575:1.0 1675:1.0 2080:1.0 2481:1.0 2873:1.0 3275:1.0 3680:1.0 4081:1.0 4590:1.0 4999:1.0 5401:1.0 5806:1.0 6207:1.0 6569:1.0 6978:1.0 7380:1.0 7601:1.0 8010:1.0 8683:1.0 8873:1.0 9280:1.0 9969:1.0 10374:1.0 10775:1.0 11132:1.0 11533:1.0 11664:1.0 12073:1.0 12475:1.0 12990:1.0 13201:1.0 13612:1.0 14017:1.0 14418:1.0 14881:1.0 
1.5661715318545224 333:1.0 607:1.0 1177:1.0 1575:1.0 1669:1.0 2083:1.0 2481:1.0 2880:1.0 3269:1.0 3683:1.0 4081:1.0 4599:1.0 5006:1.0 5395:1.0 5809:1.0 6207:1.0 6578:1.0 6985:1.0 7374:1.0 7610:1.0 8017:1.0 8690:1.0 8880:1.0 9283:1.0 9963:1.0 10377:1.0 10775:1.0 11135:1.0 11533:1.0 11673:1.0 12080:1.0 12469:1.0 12999:1.0 13210:1.0 13606:1.0 14020:1.0 14418:1.0 14881:1.0 
3.592745498078412 123:1.0 607:1.0 915:1.0 1323:1.0 1700:1.0 2094:1.0 2502:1.0 3119:1.0 3531:1.0 3925:1.0 4333:1.0 4556:1.0 4951:1.0 5363:1.0 5757:1.0 6165:1.0 6766:1.0 7161:1.0 7573:1.0 7714:1.0 8109:1.0 8572:1.0 9119:1.0 9525:1.0 9700:1.0 10094:1.0 10502:1.0 10915:1.0 11323:1.0 11735:1.0 12130:1.0 12542:1.0 13082:1.0 13398:1.0 13805:1.0 14199:1.0 14607:1.0 14818:1.0 
3.592745498078412 123:1.0 607:1.0 913:1.0 1323:1.0 1700:1.0 2092:1.0 2502:1.0 3119:1.0 3531:1.0 3923:1.0 4333:1.0 4562:1.0 4951:1.0 5363:1.0 5755:1.0 6165:1.0 6772:1.0 7161:1.0 7573:1.0 7720:1.0 8109:1.0 8572:1.0 9119:1.0 9523:1.0 9700:1.0 10092:1.0 10502:1.0 10913:1.0 11323:1.0 11741:1.0 12130:1.0 12542:1.0 13088:1.0 13404:1.0 13805:1.0 14197:1.0 14607:1.0 14818:1.0 
3.592745498078412 123:1.0 607:1.0 908:1.0 1323:1.0 1700:1.0 2087:1.0 2502:1.0 3119:1.0 3531:1.0 3918:1.0 4333:1.0 4555:1.0 4951:1.0 5363:1.0 5750:1.0 6165:1.0 6765:1.0 7161:1.0 7573:1.0 7713:1.0 8109:1.0 8572:1.0 9119:1.0 9518:1.0 9700:1.0 10087:1.0 10502:1.0 10908:1.0 11323:1.0 11734:1.0 12130:1.0 12542:1.0 13081:1.0 13397:1.0 13805:1.0 14192:1.0 14607:1.0 14818:1.0 
3.592745498078412 123:1.0 607:1.0 925:1.0 1323:1.0 1687:1.0 2104:1.0 2502:1.0 3127:1.0 3518:1.0 3935:1.0 4333:1.0 4557:1.0 4959:1.0 5350:1.0 5767:1.0 6165:1.0 6767:1.0 7169:1.0 7560:1.0 7715:1.0 8117:1.0 8580:1.0 9127:1.0 9535:1.0 9687:1.0 10104:1.0 10502:1.0 10925:1.0 11323:1.0 11736:1.0 12138:1.0 12529:1.0 13083:1.0 13399:1.0 13792:1.0 14209:1.0 14607:1.0 14818:1.0 
3.592745498078412 123:1.0 607:1.0 923:1.0 1323:1.0 1700:1.0 2102:1.0 2502:1.0 3118:1.0 3531:1.0 3933:1.0 4333:1.0 4562:1.0 4950:1.0 5363:1.0 5765:1.0 6165:1.0 6772:1.0 7160:1.0 7573:1.0 7720:1.0 8108:1.0 8571:1.0 9118:1.0 9533:1.0 9700:1.0 10102:1.0 10502:1.0 10923:1.0 11323:1.0 11741:1.0 12129:1.0 12542:1.0 13088:1.0 13404:1.0 13805:1.0 14207:1.0 14607:1.0 14818:1.0 
3.592745498078412 115:1.0 494:1.0 921:1.0 1315:1.0 1806:1.0 2205:1.0 2599:1.0 3140:1.0 3553:1.0 3952:1.0 4346:1.0 4767:1.0 5161:1.0 5574:1.0 5973:1.0 6367:1.0 6725:1.0 7119:1.0 7532:1.0 7715:1.0 8109:1.0 8677:1.0 9119:1.0 9531:1.0 9785:1.0 10184:1.0 10578:1.0 10921:1.0 11315:1.0 11736:1.0 12130:1.0 12543:1.0 12999:1.0 13567:1.0 13974:1.0 14373:1.0 14767:1.0 14915:1.0 
3.592745498078412 115:1.0 494:1.0 906:1.0 1315:1.0 1806:1.0 2190:1.0 2599:1.0 3140:1.0 3553:1.0 3937:1.0 4346:1.0 4766:1.0 5161:1.0 5574:1.0 5958:1.0 6367:1.0 6724:1.0 7119:1.0 7532:1.0 7714:1.0 8109:1.0 8677:1.0 9119:1.0 9516:1.0 9785:1.0 10169:1.0 10578:1.0 10906:1.0 11315:1.0 11735:1.0 12130:1.0 12543:1.0 12998:1.0 13566:1.0 13974:1.0 14358:1.0 14767:1.0 14915:1.0 
3.592745498078412 123:1.0 502:1.0 909:1.0 1323:1.0 1806:1.0 2193:1.0 2607:1.0 3154:1.0 3553:1.0 3940:1.0 4354:1.0 4768:1.0 5175:1.0 5574:1.0 5961:1.0 6375:1.0 6726:1.0 7133:1.0 7532:1.0 7716:1.0 8123:1.0 8691:1.0 9133:1.0 9519:1.0 9785:1.0 10172:1.0 10586:1.0 10909:1.0 11323:1.0 11737:1.0 12144:1.0 12543:1.0 13000:1.0 13568:1.0 13974:1.0 14361:1.0 14775:1.0 14923:1.0 
1.2930090526775084 115:1.0 599:1.0 921:1.0 1315:1.0 1701:1.0 2100:1.0 2494:1.0 3035:1.0 3448:1.0 3847:1.0 4241:1.0 4767:1.0 5161:1.0 5574:1.0 5973:1.0 6367:1.0 6620:1.0 7014:1.0 7427:1.0 7715:1.0 8109:1.0 8719:1.0 9098:1.0 9510:1.0 9764:1.0 10163:1.0 10557:1.0 10921:1.0 11315:1.0 11736:1.0 12130:1.0 12543:1.0 12873:1.0 13567:1.0 13974:1.0 14373:1.0 14767:1.0 14810:1.0 
3.592745498078412 115:1.0 599:1.0 906:1.0 1315:1.0 1701:1.0 2085:1.0 2494:1.0 3035:1.0 3448:1.0 3832:1.0 4241:1.0 4766:1.0 5161:1.0 5574:1.0 5958:1.0 6367:1.0 6619:1.0 7014:1.0 7427:1.0 7714:1.0 8109:1.0 8719:1.0 9098:1.0 9495:1.0 9764:1.0 10148:1.0 10557:1.0 10906:1.0 11315:1.0 11735:1.0 12130:1.0 12543:1.0 12872:1.0 13566:1.0 13974:1.0 14358:1.0 14767:1.0 14810:1.0 
3.592745498078412 123:1.0 607:1.0 922:1.0 1323:1.0 1701:1.0 2101:1.0 2502:1.0 3035:1.0 3448:1.0 3848:1.0 4249:1.0 4772:1.0 5161:1.0 5574:1.0 5974:1.0 6375:1.0 6625:1.0 7014:1.0 7427:1.0 7720:1.0 8109:1.0 8719:1.0 9098:1.0 9511:1.0 9764:1.0 10164:1.0 10565:1.0 10922:1.0 11323:1.0 11741:1.0 12130:1.0 12543:1.0 12878:1.0 13572:1.0 13974:1.0 14374:1.0 14775:1.0 14818:1.0 
1.002823929471479 123:1.0 607:1.0 915:1.0 1323:1.0 1700:1.0 2094:1.0 2502:1.0 3035:1.0 3447:1.0 3841:1.0 4249:1.0 4556:1.0 4951:1.0 5363:1.0 5757:1.0 6165:1.0 6619:1.0 7014:1.0 7426:1.0 7714:1.0 8109:1.0 8719:1.0 9098:1.0 9504:1.0 9763:1.0 10157:1.0 10565:1.0 10915:1.0 11323:1.0 11735:1.0 12130:1.0 12542:1.0 12872:1.0 13566:1.0 13973:1.0 14367:1.0 14775:1.0 14818:1.0 
3.592745498078412 113:1.0 597:1.0 921:1.0 1313:1.0 1701:1.0 2100:1.0 2492:1.0 3035:1.0 3448:1.0 3847:1.0 4239:1.0 4550:1.0 4951:1.0 5364:1.0 5763:1.0 6155:1.0 6613:1.0 7014:1.0 7427:1.0 7708:1.0 8109:1.0 8719:1.0 9098:1.0 9510:1.0 9764:1.0 10163:1.0 10555:1.0 10921:1.0 11313:1.0 11729:1.0 12130:1.0 12543:1.0 12866:1.0 13560:1.0 13974:1.0 14373:1.0 14765:1.0 14808:1.0 
1.3138689254421838 123:1.0 607:1.0 909:1.0 1323:1.0 1700:1.0 2088:1.0 2502:1.0 3035:1.0 3447:1.0 3835:1.0 4249:1.0 4557:1.0 4951:1.0 5363:1.0 5751:1.0 6165:1.0 6620:1.0 7014:1.0 7426:1.0 7715:1.0 8109:1.0 8719:1.0 9098:1.0 9498:1.0 9763:1.0 10151:1.0 10565:1.0 10909:1.0 11323:1.0 11736:1.0 12130:1.0 12542:1.0 12873:1.0 13567:1.0 13973:1.0 14361:1.0 14775:1.0 14818:1.0 
3.592745498078412 123:1.0 607:1.0 921:1.0 1323:1.0 1700:1.0 2100:1.0 2502:1.0 3035:1.0 3447:1.0 3847:1.0 4249:1.0 4551:1.0 4951:1.0 5363:1.0 5763:1.0 6165:1.0 6614:1.0 7014:1.0 7426:1.0 7709:1.0 8109:1.0 8719:1.0 9098:1.0 9510:1.0 9763:1.0 10163:1.0 10565:1.0 10921:1.0 11323:1.0 11730:1.0 12130:1.0 12542:1.0 12867:1.0 13561:1.0 13973:1.0 14373:1.0 14775:1.0 14818:1.0 
3.592745498078412 123:1.0 607:1.0 919:1.0 1323:1.0 1701:1.0 2098:1.0 2502:1.0 3035:1.0 3448:1.0 3845:1.0 4249:1.0 4563:1.0 4951:1.0 5364:1.0 5761:1.0 6165:1.0 6626:1.0 7014:1.0 7427:1.0 7721:1.0 8109:1.0 8719:1.0 9098:1.0 9508:1.0 9764:1.0 10161:1.0 10565:1.0 10919:1.0 11323:1.0 11742:1.0 12130:1.0 12543:1.0 12879:1.0 13573:1.0 13974:1.0 14371:1.0 14775:1.0 14818:1.0 
3.592745498078412 115:1.0 599:1.0 920:1.0 1315:1.0 1701:1.0 2099:1.0 2494:1.0 3035:1.0 3448:1.0 3846:1.0 4241:1.0 4561:1.0 4951:1.0 5364:1.0 5762:1.0 6157:1.0 6624:1.0 7014:1.0 7427:1.0 7719:1.0 8109:1.0 8719:1.0 9098:1.0 9509:1.0 9764:1.0 10162:1.0 10557:1.0 10920:1.0 11315:1.0 11740:1.0 12130:1.0 12543:1.0 12877:1.0 13571:1.0 13974:1.0 14372:1.0 14767:1.0 14810:1.0 
0.726591505737619 113:1.0 597:1.0 921:1.0 1313:1.0 1700:1.0 2100:1.0 2492:1.0 3035:1.0 3447:1.0 3847:1.0 4239:1.0 4556:1.0 4951:1.0 5363:1.0 5763:1.0 6155:1.0 6619:1.0 7014:1.0 7426:1.0 7714:1.0 8109:1.0 8719:1.0 9098:1.0 9510:1.0 9763:1.0 10163:1.0 10555:1.0 10921:1.0 11313:1.0 11735:1.0 12130:1.0 12542:1.0 12872:1.0 13566:1.0 13973:1.0 14373:1.0 14765:1.0 14808:1.0 
3.592745498078412 115:1.0 599:1.0 917:1.0 1315:1.0 1701:1.0 2096:1.0 2494:1.0 3035:1.0 3448:1.0 3843:1.0 4241:1.0 4550:1.0 4951:1.0 5364:1.0 5759:1.0 6157:1.0 6613:1.0 7014:1.0 7427:1.0 7708:1.0 8109:1.0 8719:1.0 9098:1.0 9506:1.0 9764:1.0 10159:1.0 10557:1.0 10917:1.0 11315:1.0 11729:1.0 12130:1.0 12543:1.0 12866:1.0 13560:1.0 13974:1.0 14369:1.0 14767:1.0 14810:1.0 
3.592745498078412 123:1.0 607:1.0 916:1.0 1323:1.0 1700:1.0 2095:1.0 2502:1.0 3035:1.0 3447:1.0 3842:1.0 4249:1.0 4557:1.0 4951:1.0 5363:1.0 5758:1.0 6165:1.0 6620:1.0 7014:1.0 7426:1.0 7715:1.0 8109:1.0 8719:1.0 9098:1.0 9505:1.0 9763:1.0 10158:1.0 10565:1.0 10916:1.0 11323:1.0 11736:1.0 12130:1.0 12542:1.0 12873:1.0 13567:1.0 13973:1.0 14368:1.0 14775:1.0 14818:1.0 
3.592745498078412 123:1.0 607:1.0 913:1.0 1323:1.0 1700:1.0 2092:1.0 2502:1.0 3035:1.0 3447:1.0 3839:1.0 4249:1.0 4562:1.0 4951:1.0 5363:1.0 5755:1.0 6165:1.0 6625:1.0 7014:1.0 7426:1.0 7720:1.0 8109:1.0 8719:1.0 9098:1.0 9502:1.0 9763:1.0 10155:1.0 10565:1.0 10913:1.0 11323:1.0 11741:1.0 12130:1.0 12542:1.0 12878:1.0 13572:1.0 13973:1.0 14365:1.0 14775:1.0 14818:1.0 
3.0186035046494144 123:1.0 607:1.0 922:1.0 1323:1.0 1701:1.0 2101:1.0 2502:1.0 3035:1.0 3448:1.0 3848:1.0 4249:1.0 4553:1.0 4951:1.0 5364:1.0 5764:1.0 6165:1.0 6616:1.0 7014:1.0 7427:1.0 7711:1.0 8109:1.0 8719:1.0 9098:1.0 9511:1.0 9764:1.0 10164:1.0 10565:1.0 10922:1.0 11323:1.0 11732:1.0 12130:1.0 12543:1.0 12869:1.0 13563:1.0 13974:1.0 14374:1.0 14775:1.0 14818:1.0 
3.592745498078412 291:1.0 607:1.0 906:1.0 1323:1.0 1763:1.0 2148:1.0 2565:1.0 2982:1.0 3384:1.0 3769:1.0 4186:1.0 4599:1.0 5003:1.0 5405:1.0 5790:1.0 6207:1.0 6767:1.0 7171:1.0 7573:1.0 7904:1.0 8308:1.0 8498:1.0 9045:1.0 9432:1.0 9805:1.0 10190:1.0 10607:1.0 10906:1.0 11323:1.0 11862:1.0 12266:1.0 12668:1.0 12873:1.0 13210:1.0 13616:1.0 14001:1.0 14418:1.0 15133:1.0 
3.592745498078412 291:1.0 607:1.0 919:1.0 1323:1.0 1755:1.0 2161:1.0 2565:1.0 2974:1.0 3376:1.0 3782:1.0 4186:1.0 4606:1.0 4995:1.0 5397:1.0 5803:1.0 6207:1.0 6774:1.0 7163:1.0 7565:1.0 7911:1.0 8300:1.0 8490:1.0 9037:1.0 9445:1.0 9797:1.0 10203:1.0 10607:1.0 10919:1.0 11323:1.0 11869:1.0 12258:1.0 12660:1.0 12880:1.0 13217:1.0 13608:1.0 14014:1.0 14418:1.0 15133:1.0 
3.592745498078412 291:1.0 607:1.0 924:1.0 1323:1.0 1748:1.0 2166:1.0 2565:1.0 2976:1.0 3369:1.0 3787:1.0 4186:1.0 4597:1.0 4997:1.0 5390:1.0 5808:1.0 6207:1.0 6765:1.0 7165:1.0 7558:1.0 7902:1.0 8302:1.0 8492:1.0 9039:1.0 9450:1.0 9790:1.0 10208:1.0 10607:1.0 10924:1.0 11323:1.0 11860:1.0 12260:1.0 12653:1.0 12871:1.0 13208:1.0 13601:1.0 14019:1.0 14418:1.0 15133:1.0 
3.592745498078412 283:1.0 599:1.0 920:1.0 1315:1.0 1764:1.0 2162:1.0 2557:1.0 2972:1.0 3385:1.0 3783:1.0 4178:1.0 4603:1.0 4993:1.0 5406:1.0 5804:1.0 6199:1.0 6771:1.0 7161:1.0 7574:1.0 7908:1.0 8298:1.0 8488:1.0 9035:1.0 9446:1.0 9806:1.0 10204:1.0 10599:1.0 10920:1.0 11315:1.0 11866:1.0 12256:1.0 12669:1.0 12877:1.0 13214:1.0 13617:1.0 14015:1.0 14410:1.0 15125:1.0 
3.592745498078412 115:1.0 599:1.0 906:1.0 1315:1.0 1701:1.0 2085:1.0 2494:1.0 3119:1.0 3532:1.0 3916:1.0 4325:1.0 4556:1.0 4951:1.0 5364:1.0 5748:1.0 6157:1.0 6724:1.0 7119:1.0 7532:1.0 7714:1.0 8109:1.0 8740:1.0 9098:1.0 9495:1.0 9890:1.0 10274:1.0 10683:1.0 10906:1.0 11315:1.0 11735:1.0 12130:1.0 12543:1.0 12872:1.0 13566:1.0 13974:1.0 14358:1.0 14767:1.0 14894:1.0 
3.592745498078412 123:1.0 607:1.0 921:1.0 1323:1.0 1701:1.0 2100:1.0 2502:1.0 3119:1.0 3532:1.0 3931:1.0 4333:1.0 4560:1.0 4951:1.0 5364:1.0 5763:1.0 6165:1.0 6728:1.0 7119:1.0 7532:1.0 7718:1.0 8109:1.0 8740:1.0 9098:1.0 9510:1.0 9890:1.0 10289:1.0 10691:1.0 10921:1.0 11323:1.0 11739:1.0 12130:1.0 12543:1.0 12876:1.0 13570:1.0 13974:1.0 14373:1.0 14775:1.0 14902:1.0 
0.0076715861458746554 123:1.0 607:1.0 912:1.0 1323:1.0 1701:1.0 2091:1.0 2502:1.0 3119:1.0 3532:1.0 3922:1.0 4333:1.0 4555:1.0 4951:1.0 5364:1.0 5754:1.0 6165:1.0 6723:1.0 7119:1.0 7532:1.0 7713:1.0 8109:1.0 8740:1.0 9098:1.0 9501:1.0 9890:1.0 10280:1.0 10691:1.0 10912:1.0 11323:1.0 11734:1.0 12130:1.0 12543:1.0 12871:1.0 13565:1.0 13974:1.0 14364:1.0 14775:1.0 14902:1.0 
3.592745498078412 123:1.0 502:1.0 919:1.0 1323:1.0 1701:1.0 2098:1.0 2502:1.0 3140:1.0 3553:1.0 3950:1.0 4354:1.0 4773:1.0 5161:1.0 5574:1.0 5971:1.0 6375:1.0 6773:1.0 7161:1.0 7574:1.0 7721:1.0 8109:1.0 8572:1.0 9119:1.0 9529:1.0 9974:1.0 10371:1.0 10775:1.0 10919:1.0 11323:1.0 11742:1.0 12130:1.0 12543:1.0 12816:1.0 13573:1.0 13974:1.0 14371:1.0 14775:1.0 14965:1.0 
3.592745498078412 123:1.0 502:1.0 909:1.0 1323:1.0 1701:1.0 2088:1.0 2502:1.0 3146:1.0 3553:1.0 3940:1.0 4354:1.0 4768:1.0 5167:1.0 5574:1.0 5961:1.0 6375:1.0 6768:1.0 7167:1.0 7574:1.0 7716:1.0 8115:1.0 8578:1.0 9125:1.0 9519:1.0 9974:1.0 10361:1.0 10775:1.0 10909:1.0 11323:1.0 11737:1.0 12136:1.0 12543:1.0 12811:1.0 13568:1.0 13974:1.0 14361:1.0 14775:1.0 14965:1.0 
3.592745498078412 123:1.0 502:1.0 908:1.0 1323:1.0 1701:1.0 2087:1.0 2502:1.0 3099:1.0 3511:1.0 3897:1.0 4312:1.0 4555:1.0 4952:1.0 5364:1.0 5750:1.0 6165:1.0 6597:1.0 6994:1.0 7406:1.0 7713:1.0 8110:1.0 8510:1.0 8931:1.0 9329:1.0 9974:1.0 10360:1.0 10775:1.0 10908:1.0 11323:1.0 11734:1.0 12131:1.0 12543:1.0 13081:1.0 13565:1.0 13974:1.0 14360:1.0 14775:1.0 14818:1.0 
2.73808054067241 123:1.0 502:1.0 908:1.0 1323:1.0 1701:1.0 2087:1.0 2502:1.0 3119:1.0 3532:1.0 3918:1.0 4333:1.0 4607:1.0 4993:1.0 5406:1.0 5792:1.0 6207:1.0 6712:1.0 7098:1.0 7511:1.0 7723:1.0 8109:1.0 8593:1.0 9098:1.0 9497:1.0 9617:1.0 10003:1.0 10418:1.0 10908:1.0 11323:1.0 11744:1.0 12130:1.0 12543:1.0 13133:1.0 13365:1.0 13764:1.0 14150:1.0 14565:1.0 14923:1.0 
3.592745498078412 123:1.0 502:1.0 908:1.0 1323:1.0 1689:1.0 2087:1.0 2502:1.0 3134:1.0 3520:1.0 3918:1.0 4333:1.0 4596:1.0 5008:1.0 5394:1.0 5792:1.0 6207:1.0 6701:1.0 7113:1.0 7499:1.0 7712:1.0 8124:1.0 8608:1.0 9113:1.0 9497:1.0 9605:1.0 10003:1.0 10418:1.0 10908:1.0 11323:1.0 11733:1.0 12145:1.0 12531:1.0 13122:1.0 13354:1.0 13752:1.0 14150:1.0 14565:1.0 14923:1.0 
3.592745498078412 123:1.0 502:1.0 921:1.0 1323:1.0 1701:1.0 2100:1.0 2502:1.0 3119:1.0 3532:1.0 3931:1.0 4333:1.0 4602:1.0 4993:1.0 5406:1.0 5805:1.0 6207:1.0 6707:1.0 7098:1.0 7511:1.0 7718:1.0 8109:1.0 8593:1.0 9098:1.0 9510:1.0 9617:1.0 10016:1.0 10418:1.0 10921:1.0 11323:1.0 11739:1.0 12130:1.0 12543:1.0 13128:1.0 13360:1.0 13764:1.0 14163:1.0 14565:1.0 14923:1.0 
1.3967403960977742 115:1.0 494:1.0 908:1.0 1315:1.0 1701:1.0 2087:1.0 2494:1.0 3119:1.0 3532:1.0 3918:1.0 4325:1.0 4604:1.0 4993:1.0 5406:1.0 5792:1.0 6199:1.0 6709:1.0 7098:1.0 7511:1.0 7720:1.0 8109:1.0 8593:1.0 9098:1.0 9497:1.0 9617:1.0 10003:1.0 10410:1.0 10908:1.0 11315:1.0 11741:1.0 12130:1.0 12543:1.0 13130:1.0 13362:1.0 13764:1.0 14150:1.0 14557:1.0 14915:1.0 
0.67242016214626 123:1.0 502:1.0 908:1.0 1323:1.0 1701:1.0 2087:1.0 2502:1.0 3120:1.0 3532:1.0 3918:1.0 4333:1.0 4597:1.0 4994:1.0 5406:1.0 5792:1.0 6207:1.0 6702:1.0 7099:1.0 7511:1.0 7713:1.0 8110:1.0 8594:1.0 9099:1.0 9497:1.0 9617:1.0 10003:1.0 10418:1.0 10908:1.0 11323:1.0 11734:1.0 12131:1.0 12543:1.0 13123:1.0 13355:1.0 13764:1.0 14150:1.0 14565:1.0 14923:1.0 
3.592745498078412 115:1.0 494:1.0 921:1.0 1315:1.0 1701:1.0 2100:1.0 2494:1.0 3119:1.0 3532:1.0 3931:1.0 4325:1.0 4599:1.0 4993:1.0 5406:1.0 5805:1.0 6199:1.0 6704:1.0 7098:1.0 7511:1.0 7715:1.0 8109:1.0 8593:1.0 9098:1.0 9510:1.0 9617:1.0 10016:1.0 10410:1.0 10921:1.0 11315:1.0 11736:1.0 12130:1.0 12543:1.0 13125:1.0 13357:1.0 13764:1.0 14163:1.0 14557:1.0 14915:1.0 
2.8104241817388336 123:1.0 502:1.0 908:1.0 1323:1.0 1700:1.0 2087:1.0 2502:1.0 3118:1.0 3531:1.0 3918:1.0 4333:1.0 4593:1.0 4992:1.0 5405:1.0 5792:1.0 6207:1.0 6698:1.0 7097:1.0 7510:1.0 7709:1.0 8108:1.0 8592:1.0 9097:1.0 9497:1.0 9616:1.0 10003:1.0 10418:1.0 10908:1.0 11323:1.0 11730:1.0 12129:1.0 12542:1.0 13119:1.0 13351:1.0 13763:1.0 14150:1.0 14565:1.0 14923:1.0 
1.3555520528116107 123:1.0 502:1.0 909:1.0 1323:1.0 1701:1.0 2088:1.0 2502:1.0 3154:1.0 3553:1.0 3940:1.0 4354:1.0 4558:1.0 4965:1.0 5364:1.0 5751:1.0 6165:1.0 6558:1.0 6965:1.0 7364:1.0 7716:1.0 8123:1.0 8586:1.0 9133:1.0 9519:1.0 9764:1.0 10151:1.0 10565:1.0 10909:1.0 11323:1.0 11737:1.0 12144:1.0 12543:1.0 12811:1.0 13568:1.0 13974:1.0 14361:1.0 14775:1.0 15175:1.0 
1.7197923653972842 123:1.0 502:1.0 922:1.0 1323:1.0 1701:1.0 2101:1.0 2502:1.0 3140:1.0 3553:1.0 3953:1.0 4354:1.0 4553:1.0 4951:1.0 5364:1.0 5764:1.0 6165:1.0 6553:1.0 6951:1.0 7364:1.0 7711:1.0 8109:1.0 8572:1.0 9119:1.0 9532:1.0 9764:1.0 10164:1.0 10565:1.0 10922:1.0 11323:1.0 11732:1.0 12130:1.0 12543:1.0 12806:1.0 13563:1.0 13974:1.0 14374:1.0 14775:1.0 15175:1.0 
3.592745498078412 113:1.0 492:1.0 909:1.0 1313:1.0 1700:1.0 2088:1.0 2492:1.0 3140:1.0 3552:1.0 3940:1.0 4344:1.0 4562:1.0 4951:1.0 5363:1.0 5751:1.0 6155:1.0 6562:1.0 6951:1.0 7363:1.0 7720:1.0 8109:1.0 8572:1.0 9119:1.0 9519:1.0 9763:1.0 10151:1.0 10555:1.0 10909:1.0 11313:1.0 11741:1.0 12130:1.0 12542:1.0 12815:1.0 13572:1.0 13973:1.0 14361:1.0 14765:1.0 15165:1.0 
3.592745498078412 123:1.0 502:1.0 921:1.0 1323:1.0 1701:1.0 2100:1.0 2502:1.0 3150:1.0 3553:1.0 3952:1.0 4354:1.0 4556:1.0 4961:1.0 5364:1.0 5763:1.0 6165:1.0 6556:1.0 6961:1.0 7364:1.0 7714:1.0 8119:1.0 8582:1.0 9129:1.0 9531:1.0 9764:1.0 10163:1.0 10565:1.0 10921:1.0 11323:1.0 11735:1.0 12140:1.0 12543:1.0 12809:1.0 13566:1.0 13974:1.0 14373:1.0 14775:1.0 15175:1.0 
2.850987612641329 123:1.0 502:1.0 918:1.0 1323:1.0 1701:1.0 2097:1.0 2502:1.0 3153:1.0 3553:1.0 3949:1.0 4354:1.0 4562:1.0 4964:1.0 5364:1.0 5760:1.0 6165:1.0 6562:1.0 6964:1.0 7364:1.0 7720:1.0 8122:1.0 8585:1.0 9132:1.0 9528:1.0 9764:1.0 10160:1.0 10565:1.0 10918:1.0 11323:1.0 11741:1.0 12143:1.0 12543:1.0 12815:1.0 13572:1.0 13974:1.0 14370:1.0 14775:1.0 15175:1.0 
3.592745498078412 115:1.0 494:1.0 906:1.0 1315:1.0 1701:1.0 2085:1.0 2494:1.0 3140:1.0 3553:1.0 3937:1.0 4346:1.0 4556:1.0 4951:1.0 5364:1.0 5748:1.0 6157:1.0 6556:1.0 6951:1.0 7364:1.0 7714:1.0 8109:1.0 8572:1.0 9119:1.0 9516:1.0 9764:1.0 10148:1.0 10557:1.0 10906:1.0 11315:1.0 11735:1.0 12130:1.0 12543:1.0 12809:1.0 13566:1.0 13974:1.0 14358:1.0 14767:1.0 15167:1.0 
3.592745498078412 123:1.0 502:1.0 908:1.0 1323:1.0 1700:1.0 2087:1.0 2502:1.0 3140:1.0 3552:1.0 3939:1.0 4354:1.0 4555:1.0 4951:1.0 5363:1.0 5750:1.0 6165:1.0 6555:1.0 6951:1.0 7363:1.0 7713:1.0 8109:1.0 8572:1.0 9119:1.0 9518:1.0 9763:1.0 10150:1.0 10565:1.0 10908:1.0 11323:1.0 11734:1.0 12130:1.0 12542:1.0 12808:1.0 13565:1.0 13973:1.0 14360:1.0 14775:1.0 15175:1.0 
0.5530318443632457 123:1.0 502:1.0 913:1.0 1323:1.0 1700:1.0 2092:1.0 2502:1.0 3140:1.0 3552:1.0 3944:1.0 4354:1.0 4562:1.0 4951:1.0 5363:1.0 5755:1.0 6165:1.0 6562:1.0 6951:1.0 7363:1.0 7720:1.0 8109:1.0 8572:1.0 9119:1.0 9523:1.0 9763:1.0 10155:1.0 10565:1.0 10913:1.0 11323:1.0 11741:1.0 12130:1.0 12542:1.0 12815:1.0 13572:1.0 13973:1.0 14365:1.0 14775:1.0 15175:1.0 
1.711531665279618 123:1.0 502:1.0 909:1.0 1323:1.0 1700:1.0 2088:1.0 2502:1.0 3140:1.0 3552:1.0 3940:1.0 4354:1.0 4557:1.0 4951:1.0 5363:1.0 5751:1.0 6165:1.0 6557:1.0 6951:1.0 7363:1.0 7715:1.0 8109:1.0 8572:1.0 9119:1.0 9519:1.0 9763:1.0 10151:1.0 10565:1.0 10909:1.0 11323:1.0 11736:1.0 12130:1.0 12542:1.0 12810:1.0 13567:1.0 13973:1.0 14361:1.0 14775:1.0 15175:1.0 
1.7444519379525916 123:1.0 502:1.0 920:1.0 1323:1.0 1701:1.0 2099:1.0 2502:1.0 3139:1.0 3553:1.0 3951:1.0 4354:1.0 4565:1.0 4950:1.0 5364:1.0 5762:1.0 6165:1.0 6565:1.0 6950:1.0 7364:1.0 7723:1.0 8108:1.0 8571:1.0 9118:1.0 9530:1.0 9764:1.0 10162:1.0 10565:1.0 10920:1.0 11323:1.0 11744:1.0 12129:1.0 12543:1.0 12818:1.0 13575:1.0 13974:1.0 14372:1.0 14775:1.0 15175:1.0 
1.9377299152205896 123:1.0 502:1.0 920:1.0 1323:1.0 1701:1.0 2099:1.0 2502:1.0 3153:1.0 3553:1.0 3951:1.0 4354:1.0 4563:1.0 4964:1.0 5364:1.0 5762:1.0 6165:1.0 6563:1.0 6964:1.0 7364:1.0 7721:1.0 8122:1.0 8585:1.0 9132:1.0 9530:1.0 9764:1.0 10162:1.0 10565:1.0 10920:1.0 11323:1.0 11742:1.0 12143:1.0 12543:1.0 12816:1.0 13573:1.0 13974:1.0 14372:1.0 14775:1.0 15175:1.0 
3.592745498078412 123:1.0 502:1.0 915:1.0 1323:1.0 1700:1.0 2094:1.0 2502:1.0 3161:1.0 3573:1.0 3967:1.0 4375:1.0 4556:1.0 4951:1.0 5363:1.0 5757:1.0 6165:1.0 6556:1.0 6951:1.0 7363:1.0 7924:1.0 8319:1.0 8509:1.0 9098:1.0 9504:1.0 9763:1.0 10157:1.0 10565:1.0 11125:1.0 11533:1.0 11735:1.0 12130:1.0 12542:1.0 12809:1.0 13566:1.0 13973:1.0 14367:1.0 14775:1.0 14818:1.0 
3.592745498078412 123:1.0 502:1.0 909:1.0 1323:1.0 1700:1.0 2088:1.0 2502:1.0 3161:1.0 3573:1.0 3961:1.0 4375:1.0 4557:1.0 4951:1.0 5363:1.0 5751:1.0 6165:1.0 6557:1.0 6951:1.0 7363:1.0 7925:1.0 8319:1.0 8509:1.0 9098:1.0 9498:1.0 9763:1.0 10151:1.0 10565:1.0 11119:1.0 11533:1.0 11736:1.0 12130:1.0 12542:1.0 12810:1.0 13567:1.0 13973:1.0 14361:1.0 14775:1.0 14818:1.0 
2.132734335423365 123:1.0 502:1.0 908:1.0 1323:1.0 1701:1.0 2087:1.0 2502:1.0 3120:1.0 3532:1.0 3918:1.0 4333:1.0 4555:1.0 4952:1.0 5364:1.0 5750:1.0 6165:1.0 6702:1.0 7099:1.0 7511:1.0 7713:1.0 8110:1.0 8594:1.0 9099:1.0 9497:1.0 9617:1.0 10003:1.0 10418:1.0 10908:1.0 11323:1.0 11734:1.0 12131:1.0 12543:1.0 12808:1.0 13355:1.0 13764:1.0 14150:1.0 14565:1.0 14923:1.0 
3.592745498078412 123:1.0 502:1.0 908:1.0 1323:1.0 1700:1.0 2087:1.0 2502:1.0 3118:1.0 3531:1.0 3918:1.0 4333:1.0 4551:1.0 4950:1.0 5363:1.0 5750:1.0 6165:1.0 6698:1.0 7097:1.0 7510:1.0 7709:1.0 8108:1.0 8592:1.0 9097:1.0 9497:1.0 9616:1.0 10003:1.0 10418:1.0 10908:1.0 11323:1.0 11730:1.0 12129:1.0 12542:1.0 12804:1.0 13351:1.0 13763:1.0 14150:1.0 14565:1.0 14923:1.0 
3.592745498078412 115:1.0 494:1.0 921:1.0 1315:1.0 1701:1.0 2100:1.0 2494:1.0 3118:1.0 3532:1.0 3931:1.0 4325:1.0 4553:1.0 4950:1.0 5364:1.0 5763:1.0 6157:1.0 6700:1.0 7097:1.0 7511:1.0 7711:1.0 8108:1.0 8592:1.0 9097:1.0 9510:1.0 9617:1.0 10016:1.0 10410:1.0 10921:1.0 11315:1.0 11732:1.0 12129:1.0 12543:1.0 12806:1.0 13353:1.0 13764:1.0 14163:1.0 14557:1.0 14915:1.0 
0.18651323467765016 123:1.0 502:1.0 908:1.0 1323:1.0 1700:1.0 2087:1.0 2502:1.0 3119:1.0 3531:1.0 3918:1.0 4333:1.0 4555:1.0 4951:1.0 5363:1.0 5750:1.0 6165:1.0 6702:1.0 7098:1.0 7510:1.0 7713:1.0 8109:1.0 8593:1.0 9098:1.0 9497:1.0 9616:1.0 10003:1.0 10418:1.0 10908:1.0 11323:1.0 11734:1.0 12130:1.0 12542:1.0 12808:1.0 13355:1.0 13763:1.0 14150:1.0 14565:1.0 14923:1.0 
3.592745498078412 123:1.0 502:1.0 924:1.0 1323:1.0 1685:1.0 2103:1.0 2502:1.0 3123:1.0 3516:1.0 3934:1.0 4333:1.0 4555:1.0 4955:1.0 5348:1.0 5766:1.0 6165:1.0 6702:1.0 7102:1.0 7495:1.0 7713:1.0 8113:1.0 8597:1.0 9102:1.0 9513:1.0 9601:1.0 10019:1.0 10418:1.0 10924:1.0 11323:1.0 11734:1.0 12134:1.0 12527:1.0 12808:1.0 13355:1.0 13748:1.0 14166:1.0 14565:1.0 14923:1.0 
3.592745498078412 123:1.0 502:1.0 909:1.0 1323:1.0 1701:1.0 2088:1.0 2502:1.0 3133:1.0 3532:1.0 3919:1.0 4333:1.0 4558:1.0 4965:1.0 5364:1.0 5751:1.0 6165:1.0 6705:1.0 7112:1.0 7511:1.0 7716:1.0 8123:1.0 8607:1.0 9112:1.0 9498:1.0 9617:1.0 10004:1.0 10418:1.0 10909:1.0 11323:1.0 11737:1.0 12144:1.0 12543:1.0 12811:1.0 13358:1.0 13764:1.0 14151:1.0 14565:1.0 14923:1.0 
3.592745498078412 115:1.0 494:1.0 908:1.0 1315:1.0 1701:1.0 2087:1.0 2494:1.0 3119:1.0 3532:1.0 3918:1.0 4325:1.0 4562:1.0 4951:1.0 5364:1.0 5750:1.0 6157:1.0 6709:1.0 7098:1.0 7511:1.0 7720:1.0 8109:1.0 8593:1.0 9098:1.0 9497:1.0 9617:1.0 10003:1.0 10410:1.0 10908:1.0 11315:1.0 11741:1.0 12130:1.0 12543:1.0 12815:1.0 13362:1.0 13764:1.0 14150:1.0 14557:1.0 14915:1.0 
3.592745498078412 115:1.0 494:1.0 924:1.0 1315:1.0 1701:1.0 2103:1.0 2494:1.0 3125:1.0 3532:1.0 3934:1.0 4325:1.0 4552:1.0 4957:1.0 5364:1.0 5766:1.0 6157:1.0 6699:1.0 7104:1.0 7511:1.0 7710:1.0 8115:1.0 8599:1.0 9104:1.0 9513:1.0 9617:1.0 10019:1.0 10410:1.0 10924:1.0 11315:1.0 11731:1.0 12136:1.0 12543:1.0 12805:1.0 13352:1.0 13764:1.0 14166:1.0 14557:1.0 14915:1.0 
2.3164209697207894 115:1.0 494:1.0 908:1.0 1315:1.0 1700:1.0 2087:1.0 2494:1.0 3118:1.0 3531:1.0 3918:1.0 4325:1.0 4549:1.0 4950:1.0 5363:1.0 5750:1.0 6157:1.0 6696:1.0 7097:1.0 7510:1.0 7707:1.0 8108:1.0 8592:1.0 9097:1.0 9497:1.0 9616:1.0 10003:1.0 10410:1.0 10908:1.0 11315:1.0 11728:1.0 12129:1.0 12542:1.0 12802:1.0 13349:1.0 13763:1.0 14150:1.0 14557:1.0 14915:1.0 
3.592745498078412 123:1.0 502:1.0 908:1.0 1323:1.0 1701:1.0 2087:1.0 2502:1.0 3119:1.0 3532:1.0 3918:1.0 4333:1.0 4565:1.0 4951:1.0 5364:1.0 5750:1.0 6165:1.0 6712:1.0 7098:1.0 7511:1.0 7723:1.0 8109:1.0 8593:1.0 9098:1.0 9497:1.0 9617:1.0 10003:1.0 10418:1.0 10908:1.0 11323:1.0 11744:1.0 12130:1.0 12543:1.0 12818:1.0 13365:1.0 13764:1.0 14150:1.0 14565:1.0 14923:1.0 
0.819938353212858 123:1.0 502:1.0 913:1.0 1323:1.0 1700:1.0 2092:1.0 2502:1.0 3140:1.0 3552:1.0 3944:1.0 4354:1.0 4562:1.0 4951:1.0 5363:1.0 5755:1.0 6165:1.0 6562:1.0 6951:1.0 7363:1.0 7720:1.0 8109:1.0 8572:1.0 9035:1.0 9439:1.0 9805:1.0 10197:1.0 10607:1.0 10913:1.0 11323:1.0 11741:1.0 12130:1.0 12542:1.0 12815:1.0 13572:1.0 13973:1.0 14365:1.0 14775:1.0 15175:1.0 
2.5209681763820555 113:1.0 492:1.0 909:1.0 1313:1.0 1700:1.0 2088:1.0 2492:1.0 3140:1.0 3552:1.0 3940:1.0 4344:1.0 4562:1.0 4951:1.0 5363:1.0 5751:1.0 6155:1.0 6562:1.0 6951:1.0 7363:1.0 7720:1.0 8109:1.0 8572:1.0 9035:1.0 9435:1.0 9805:1.0 10193:1.0 10597:1.0 10909:1.0 11313:1.0 11741:1.0 12130:1.0 12542:1.0 12815:1.0 13572:1.0 13973:1.0 14361:1.0 14765:1.0 15165:1.0 
2.730513013529167 123:1.0 502:1.0 908:1.0 1323:1.0 1700:1.0 2087:1.0 2502:1.0 3140:1.0 3552:1.0 3939:1.0 4354:1.0 4555:1.0 4951:1.0 5363:1.0 5750:1.0 6165:1.0 6555:1.0 6951:1.0 7363:1.0 7713:1.0 8109:1.0 8572:1.0 9035:1.0 9434:1.0 9805:1.0 10192:1.0 10607:1.0 10908:1.0 11323:1.0 11734:1.0 12130:1.0 12542:1.0 12808:1.0 13565:1.0 13973:1.0 14360:1.0 14775:1.0 15175:1.0 
3.592745498078412 123:1.0 502:1.0 906:1.0 1323:1.0 1685:1.0 2085:1.0 2502:1.0 3140:1.0 3537:1.0 3937:1.0 4354:1.0 4553:1.0 4951:1.0 5348:1.0 5748:1.0 6165:1.0 6553:1.0 6951:1.0 7348:1.0 7711:1.0 8109:1.0 8572:1.0 9035:1.0 9432:1.0 9790:1.0 10190:1.0 10607:1.0 10906:1.0 11323:1.0 11732:1.0 12130:1.0 12527:1.0 12806:1.0 13563:1.0 13958:1.0 14358:1.0 14775:1.0 15175:1.0 
2.101191551824115 123:1.0 502:1.0 918:1.0 1323:1.0 1701:1.0 2097:1.0 2502:1.0 3153:1.0 3553:1.0 3949:1.0 4354:1.0 4562:1.0 4964:1.0 5364:1.0 5760:1.0 6165:1.0 6562:1.0 6964:1.0 7364:1.0 7720:1.0 8122:1.0 8585:1.0 9048:1.0 9444:1.0 9806:1.0 10202:1.0 10607:1.0 10918:1.0 11323:1.0 11741:1.0 12143:1.0 12543:1.0 12815:1.0 13572:1.0 13974:1.0 14370:1.0 14775:1.0 15175:1.0 
3.592745498078412 123:1.0 502:1.0 916:1.0 1323:1.0 1700:1.0 2095:1.0 2502:1.0 3140:1.0 3552:1.0 3947:1.0 4354:1.0 4557:1.0 4951:1.0 5363:1.0 5758:1.0 6165:1.0 6557:1.0 6951:1.0 7363:1.0 7715:1.0 8109:1.0 8572:1.0 9035:1.0 9442:1.0 9805:1.0 10200:1.0 10607:1.0 10916:1.0 11323:1.0 11736:1.0 12130:1.0 12542:1.0 12810:1.0 13567:1.0 13973:1.0 14368:1.0 14775:1.0 15175:1.0 
3.592745498078412 123:1.0 502:1.0 906:1.0 1323:1.0 1700:1.0 2085:1.0 2502:1.0 3150:1.0 3552:1.0 3937:1.0 4354:1.0 4557:1.0 4961:1.0 5363:1.0 5748:1.0 6165:1.0 6557:1.0 6961:1.0 7363:1.0 7715:1.0 8119:1.0 8582:1.0 9045:1.0 9432:1.0 9805:1.0 10190:1.0 10607:1.0 10906:1.0 11323:1.0 11736:1.0 12140:1.0 12542:1.0 12810:1.0 13567:1.0 13973:1.0 14358:1.0 14775:1.0 15175:1.0 
0.994621266267454 123:1.0 502:1.0 921:1.0 1323:1.0 1701:1.0 2100:1.0 2502:1.0 3150:1.0 3553:1.0 3952:1.0 4354:1.0 4556:1.0 4961:1.0 5364:1.0 5763:1.0 6165:1.0 6556:1.0 6961:1.0 7364:1.0 7714:1.0 8119:1.0 8582:1.0 9045:1.0 9447:1.0 9806:1.0 10205:1.0 10607:1.0 10921:1.0 11323:1.0 11735:1.0 12140:1.0 12543:1.0 12809:1.0 13566:1.0 13974:1.0 14373:1.0 14775:1.0 15175:1.0 
3.592745498078412 123:1.0 502:1.0 909:1.0 1323:1.0 1701:1.0 2088:1.0 2502:1.0 2818:1.0 3217:1.0 3604:1.0 4018:1.0 4558:1.0 4965:1.0 5364:1.0 5751:1.0 6165:1.0 6411:1.0 6818:1.0 7217:1.0 7653:1.0 8060:1.0 8586:1.0 9028:1.0 9414:1.0 9806:1.0 10193:1.0 10607:1.0 11077:1.0 11491:1.0 11737:1.0 12144:1.0 12543:1.0 13000:1.0 13568:1.0 13974:1.0 14361:1.0 14775:1.0 14902:1.0 
3.592745498078412 123:1.0 502:1.0 921:1.0 1323:1.0 1700:1.0 2100:1.0 2502:1.0 3119:1.0 3531:1.0 3931:1.0 4333:1.0 4593:1.0 4993:1.0 5405:1.0 5805:1.0 6207:1.0 6698:1.0 7098:1.0 7510:1.0 7709:1.0 8109:1.0 8593:1.0 9098:1.0 9510:1.0 9616:1.0 10016:1.0 10418:1.0 10921:1.0 11323:1.0 11730:1.0 12130:1.0 12542:1.0 13140:1.0 13351:1.0 13763:1.0 14163:1.0 14565:1.0 14923:1.0 
3.592745498078412 115:1.0 494:1.0 920:1.0 1315:1.0 1701:1.0 2099:1.0 2494:1.0 3119:1.0 3532:1.0 3930:1.0 4325:1.0 4603:1.0 4993:1.0 5406:1.0 5804:1.0 6199:1.0 6708:1.0 7098:1.0 7511:1.0 7719:1.0 8109:1.0 8593:1.0 9098:1.0 9509:1.0 9617:1.0 10015:1.0 10410:1.0 10920:1.0 11315:1.0 11740:1.0 12130:1.0 12543:1.0 13150:1.0 13361:1.0 13764:1.0 14162:1.0 14557:1.0 14915:1.0 
3.592745498078412 123:1.0 502:1.0 908:1.0 1323:1.0 1701:1.0 2087:1.0 2502:1.0 3120:1.0 3532:1.0 3918:1.0 4333:1.0 4597:1.0 4994:1.0 5406:1.0 5792:1.0 6207:1.0 6702:1.0 7099:1.0 7511:1.0 7713:1.0 8110:1.0 8594:1.0 9099:1.0 9497:1.0 9617:1.0 10003:1.0 10418:1.0 10908:1.0 11323:1.0 11734:1.0 12131:1.0 12543:1.0 13144:1.0 13355:1.0 13764:1.0 14150:1.0 14565:1.0 14923:1.0 
3.592745498078412 115:1.0 494:1.0 917:1.0 1315:1.0 1700:1.0 2096:1.0 2494:1.0 3133:1.0 3531:1.0 3927:1.0 4325:1.0 4609:1.0 5007:1.0 5405:1.0 5801:1.0 6199:1.0 6714:1.0 7112:1.0 7510:1.0 7725:1.0 8123:1.0 8607:1.0 9112:1.0 9506:1.0 9616:1.0 10012:1.0 10410:1.0 10917:1.0 11315:1.0 11746:1.0 12144:1.0 12542:1.0 13156:1.0 13367:1.0 13763:1.0 14159:1.0 14557:1.0 14915:1.0 
3.592745498078412 123:1.0 502:1.0 921:1.0 1323:1.0 1700:1.0 2100:1.0 2502:1.0 3123:1.0 3531:1.0 3931:1.0 4333:1.0 4604:1.0 4997:1.0 5405:1.0 5805:1.0 6207:1.0 6709:1.0 7102:1.0 7510:1.0 7720:1.0 8113:1.0 8597:1.0 9102:1.0 9510:1.0 9616:1.0 10016:1.0 10418:1.0 10921:1.0 11323:1.0 11741:1.0 12134:1.0 12542:1.0 13151:1.0 13362:1.0 13763:1.0 14163:1.0 14565:1.0 14923:1.0 
1.9520425194347881 123:1.0 502:1.0 921:1.0 1323:1.0 1701:1.0 2100:1.0 2502:1.0 3119:1.0 3532:1.0 3931:1.0 4333:1.0 4602:1.0 4993:1.0 5406:1.0 5805:1.0 6207:1.0 6707:1.0 7098:1.0 7511:1.0 7718:1.0 8109:1.0 8593:1.0 9098:1.0 9510:1.0 9617:1.0 10016:1.0 10418:1.0 10921:1.0 11323:1.0 11739:1.0 12130:1.0 12543:1.0 13149:1.0 13360:1.0 13764:1.0 14163:1.0 14565:1.0 14923:1.0 
3.592745498078412 123:1.0 502:1.0 908:1.0 1323:1.0 1701:1.0 2087:1.0 2502:1.0 3125:1.0 3532:1.0 3918:1.0 4333:1.0 4599:1.0 4999:1.0 5406:1.0 5792:1.0 6207:1.0 6704:1.0 7104:1.0 7511:1.0 7715:1.0 8115:1.0 8599:1.0 9104:1.0 9497:1.0 9617:1.0 10003:1.0 10418:1.0 10908:1.0 11323:1.0 11736:1.0 12136:1.0 12543:1.0 13146:1.0 13357:1.0 13764:1.0 14150:1.0 14565:1.0 14923:1.0 
1.050041723279317 115:1.0 494:1.0 921:1.0 1315:1.0 1701:1.0 2100:1.0 2494:1.0 3119:1.0 3532:1.0 3931:1.0 4325:1.0 4599:1.0 4993:1.0 5406:1.0 5805:1.0 6199:1.0 6704:1.0 7098:1.0 7511:1.0 7715:1.0 8109:1.0 8593:1.0 9098:1.0 9510:1.0 9617:1.0 10016:1.0 10410:1.0 10921:1.0 11315:1.0 11736:1.0 12130:1.0 12543:1.0 13146:1.0 13357:1.0 13764:1.0 14163:1.0 14557:1.0 14915:1.0 
1.8891672174043022 115:1.0 494:1.0 917:1.0 1315:1.0 1701:1.0 2096:1.0 2494:1.0 3119:1.0 3532:1.0 3927:1.0 4325:1.0 4592:1.0 4993:1.0 5406:1.0 5801:1.0 6199:1.0 6697:1.0 7098:1.0 7511:1.0 7708:1.0 8109:1.0 8593:1.0 9098:1.0 9506:1.0 9617:1.0 10012:1.0 10410:1.0 10917:1.0 11315:1.0 11729:1.0 12130:1.0 12543:1.0 13139:1.0 13350:1.0 13764:1.0 14159:1.0 14557:1.0 14915:1.0 
3.592745498078412 115:1.0 494:1.0 921:1.0 1315:1.0 1700:1.0 2100:1.0 2494:1.0 3123:1.0 3531:1.0 3931:1.0 4325:1.0 4598:1.0 4997:1.0 5405:1.0 5805:1.0 6199:1.0 6703:1.0 7102:1.0 7510:1.0 7714:1.0 8113:1.0 8597:1.0 9102:1.0 9510:1.0 9616:1.0 10016:1.0 10410:1.0 10921:1.0 11315:1.0 11735:1.0 12134:1.0 12542:1.0 13145:1.0 13356:1.0 13763:1.0 14163:1.0 14557:1.0 14915:1.0 
2.2780514557935287 123:1.0 502:1.0 924:1.0 1323:1.0 1685:1.0 2103:1.0 2502:1.0 3123:1.0 3516:1.0 3934:1.0 4333:1.0 4597:1.0 4997:1.0 5390:1.0 5808:1.0 6207:1.0 6702:1.0 7102:1.0 7495:1.0 7713:1.0 8113:1.0 8597:1.0 9102:1.0 9513:1.0 9601:1.0 10019:1.0 10418:1.0 10924:1.0 11323:1.0 11734:1.0 12134:1.0 12527:1.0 13144:1.0 13355:1.0 13748:1.0 14166:1.0 14565:1.0 14923:1.0 
3.4116122473069077 115:1.0 494:1.0 906:1.0 1315:1.0 1700:1.0 2085:1.0 2494:1.0 3133:1.0 3531:1.0 3916:1.0 4325:1.0 4604:1.0 5007:1.0 5405:1.0 5790:1.0 6199:1.0 6709:1.0 7112:1.0 7510:1.0 7720:1.0 8123:1.0 8607:1.0 9112:1.0 9495:1.0 9616:1.0 10001:1.0 10410:1.0 10906:1.0 11315:1.0 11741:1.0 12144:1.0 12542:1.0 13151:1.0 13362:1.0 13763:1.0 14148:1.0 14557:1.0 14915:1.0 
3.592745498078412 123:1.0 502:1.0 913:1.0 1323:1.0 1700:1.0 2092:1.0 2502:1.0 3119:1.0 3531:1.0 3923:1.0 4333:1.0 4604:1.0 4993:1.0 5405:1.0 5797:1.0 6207:1.0 6709:1.0 7098:1.0 7510:1.0 7720:1.0 8109:1.0 8593:1.0 9098:1.0 9502:1.0 9616:1.0 10008:1.0 10418:1.0 10913:1.0 11323:1.0 11741:1.0 12130:1.0 12542:1.0 13151:1.0 13362:1.0 13763:1.0 14155:1.0 14565:1.0 14923:1.0 
2.8143193429939983 123:1.0 502:1.0 908:1.0 1323:1.0 1701:1.0 2087:1.0 2502:1.0 3119:1.0 3532:1.0 3918:1.0 4333:1.0 4607:1.0 4993:1.0 5406:1.0 5792:1.0 6207:1.0 6712:1.0 7098:1.0 7511:1.0 7723:1.0 8109:1.0 8593:1.0 9098:1.0 9497:1.0 9617:1.0 10003:1.0 10418:1.0 10908:1.0 11323:1.0 11744:1.0 12130:1.0 12543:1.0 13154:1.0 13365:1.0 13764:1.0 14150:1.0 14565:1.0 14923:1.0 
0.20944571688385033 123:1.0 502:1.0 908:1.0 1323:1.0 1700:1.0 2087:1.0 2502:1.0 3118:1.0 3531:1.0 3918:1.0 4333:1.0 4593:1.0 4992:1.0 5405:1.0 5792:1.0 6207:1.0 6698:1.0 7097:1.0 7510:1.0 7709:1.0 8108:1.0 8592:1.0 9097:1.0 9497:1.0 9616:1.0 10003:1.0 10418:1.0 10908:1.0 11323:1.0 11730:1.0 12129:1.0 12542:1.0 13140:1.0 13351:1.0 13763:1.0 14150:1.0 14565:1.0 14923:1.0 
3.592745498078412 115:1.0 494:1.0 921:1.0 1315:1.0 1701:1.0 2100:1.0 2494:1.0 3118:1.0 3532:1.0 3931:1.0 4325:1.0 4595:1.0 4992:1.0 5406:1.0 5805:1.0 6199:1.0 6700:1.0 7097:1.0 7511:1.0 7711:1.0 8108:1.0 8592:1.0 9097:1.0 9510:1.0 9617:1.0 10016:1.0 10410:1.0 10921:1.0 11315:1.0 11732:1.0 12129:1.0 12543:1.0 13142:1.0 13353:1.0 13764:1.0 14163:1.0 14557:1.0 14915:1.0 
3.592745498078412 123:1.0 502:1.0 917:1.0 1323:1.0 1700:1.0 2096:1.0 2502:1.0 3123:1.0 3531:1.0 3927:1.0 4333:1.0 4604:1.0 4997:1.0 5405:1.0 5801:1.0 6207:1.0 6709:1.0 7102:1.0 7510:1.0 7720:1.0 8113:1.0 8597:1.0 9102:1.0 9506:1.0 9616:1.0 10012:1.0 10418:1.0 10917:1.0 11323:1.0 11741:1.0 12134:1.0 12542:1.0 13151:1.0 13362:1.0 13763:1.0 14159:1.0 14565:1.0 14923:1.0 
3.592745498078412 113:1.0 597:1.0 909:1.0 1313:1.0 1700:1.0 2088:1.0 2492:1.0 3035:1.0 3447:1.0 3835:1.0 4239:1.0 4562:1.0 4951:1.0 5363:1.0 5751:1.0 6155:1.0 6625:1.0 7014:1.0 7426:1.0 7720:1.0 8109:1.0 8719:1.0 9098:1.0 9498:1.0 9763:1.0 10151:1.0 10555:1.0 10909:1.0 11313:1.0 11741:1.0 12130:1.0 12542:1.0 12878:1.0 13572:1.0 13973:1.0 14361:1.0 14765:1.0 14808:1.0 
3.592745498078412 123:1.0 607:1.0 915:1.0 1323:1.0 1700:1.0 2094:1.0 2502:1.0 3035:1.0 3447:1.0 3841:1.0 4249:1.0 4556:1.0 4951:1.0 5363:1.0 5757:1.0 6165:1.0 6619:1.0 7014:1.0 7426:1.0 7714:1.0 8109:1.0 8719:1.0 9098:1.0 9504:1.0 9763:1.0 10157:1.0 10565:1.0 10915:1.0 11323:1.0 11735:1.0 12130:1.0 12542:1.0 12872:1.0 13566:1.0 13973:1.0 14367:1.0 14775:1.0 14818:1.0 
3.592745498078412 123:1.0 607:1.0 916:1.0 1323:1.0 1700:1.0 2095:1.0 2502:1.0 3035:1.0 3447:1.0 3842:1.0 4249:1.0 4557:1.0 4951:1.0 5363:1.0 5758:1.0 6165:1.0 6620:1.0 7014:1.0 7426:1.0 7715:1.0 8109:1.0 8719:1.0 9098:1.0 9505:1.0 9763:1.0 10158:1.0 10565:1.0 10916:1.0 11323:1.0 11736:1.0 12130:1.0 12542:1.0 12873:1.0 13567:1.0 13973:1.0 14368:1.0 14775:1.0 14818:1.0 
3.592745498078412 113:1.0 597:1.0 921:1.0 1313:1.0 1701:1.0 2100:1.0 2492:1.0 3035:1.0 3448:1.0 3847:1.0 4239:1.0 4550:1.0 4951:1.0 5364:1.0 5763:1.0 6155:1.0 6613:1.0 7014:1.0 7427:1.0 7708:1.0 8109:1.0 8719:1.0 9098:1.0 9510:1.0 9764:1.0 10163:1.0 10555:1.0 10921:1.0 11313:1.0 11729:1.0 12130:1.0 12543:1.0 12866:1.0 13560:1.0 13974:1.0 14373:1.0 14765:1.0 14808:1.0 
2.8563702328212224 123:1.0 607:1.0 921:1.0 1323:1.0 1701:1.0 2100:1.0 2502:1.0 3045:1.0 3448:1.0 3847:1.0 4249:1.0 4556:1.0 4961:1.0 5364:1.0 5763:1.0 6165:1.0 6619:1.0 7024:1.0 7427:1.0 7714:1.0 8119:1.0 8729:1.0 9108:1.0 9510:1.0 9764:1.0 10163:1.0 10565:1.0 10921:1.0 11323:1.0 11735:1.0 12140:1.0 12543:1.0 12872:1.0 13566:1.0 13974:1.0 14373:1.0 14775:1.0 14818:1.0 
2.007343523637699 115:1.0 599:1.0 921:1.0 1315:1.0 1700:1.0 2100:1.0 2494:1.0 3035:1.0 3447:1.0 3847:1.0 4241:1.0 4556:1.0 4951:1.0 5363:1.0 5763:1.0 6157:1.0 6619:1.0 7014:1.0 7426:1.0 7714:1.0 8109:1.0 8719:1.0 9098:1.0 9510:1.0 9763:1.0 10163:1.0 10557:1.0 10921:1.0 11315:1.0 11735:1.0 12130:1.0 12542:1.0 12872:1.0 13566:1.0 13973:1.0 14373:1.0 14767:1.0 14810:1.0 
3.592745498078412 123:1.0 607:1.0 922:1.0 1323:1.0 1701:1.0 2101:1.0 2502:1.0 3035:1.0 3448:1.0 3848:1.0 4249:1.0 4553:1.0 4951:1.0 5364:1.0 5764:1.0 6165:1.0 6616:1.0 7014:1.0 7427:1.0 7711:1.0 8109:1.0 8719:1.0 9098:1.0 9511:1.0 9764:1.0 10164:1.0 10565:1.0 10922:1.0 11323:1.0 11732:1.0 12130:1.0 12543:1.0 12869:1.0 13563:1.0 13974:1.0 14374:1.0 14775:1.0 14818:1.0 
2.7624408420460105 257:1.0 594:1.0 910:1.0 1310:1.0 1620:1.0 2005:1.0 2405:1.0 3140:1.0 3556:1.0 3941:1.0 4341:1.0 4556:1.0 4951:1.0 5367:1.0 5752:1.0 6152:1.0 6577:1.0 6972:1.0 7388:1.0 7777:1.0 8172:1.0 8404:1.0 9098:1.0 9499:1.0 9830:1.0 10215:1.0 10615:1.0 10910:1.0 11310:1.0 11861:1.0 12256:1.0 12672:1.0 12872:1.0 13356:1.0 13767:1.0 14152:1.0 14552:1.0 15120:1.0 
3.592745498078412 260:1.0 597:1.0 915:1.0 1313:1.0 1619:1.0 2010:1.0 2408:1.0 3140:1.0 3555:1.0 3946:1.0 4344:1.0 4556:1.0 4951:1.0 5366:1.0 5757:1.0 6155:1.0 6577:1.0 6972:1.0 7387:1.0 7777:1.0 8172:1.0 8404:1.0 9098:1.0 9504:1.0 9829:1.0 10220:1.0 10618:1.0 10915:1.0 11313:1.0 11861:1.0 12256:1.0 12671:1.0 12872:1.0 13356:1.0 13766:1.0 14157:1.0 14555:1.0 15123:1.0 
1.9512291690958379 123:1.0 607:1.0 924:1.0 1323:1.0 1685:1.0 2103:1.0 2502:1.0 3123:1.0 3516:1.0 3934:1.0 4333:1.0 4765:1.0 5165:1.0 5558:1.0 5976:1.0 6375:1.0 6765:1.0 7165:1.0 7558:1.0 7713:1.0 8113:1.0 8681:1.0 8871:1.0 9282:1.0 9874:1.0 10292:1.0 10691:1.0 11134:1.0 11533:1.0 11734:1.0 12134:1.0 12527:1.0 13081:1.0 13355:1.0 13748:1.0 14166:1.0 14565:1.0 14818:1.0 
3.592745498078412 123:1.0 607:1.0 906:1.0 1323:1.0 1805:1.0 2190:1.0 2607:1.0 3129:1.0 3531:1.0 3916:1.0 4333:1.0 4557:1.0 4961:1.0 5363:1.0 5748:1.0 6165:1.0 6767:1.0 7171:1.0 7573:1.0 7715:1.0 8119:1.0 8540:1.0 8877:1.0 9264:1.0 10015:1.0 10400:1.0 10817:1.0 10906:1.0 11323:1.0 11736:1.0 12140:1.0 12542:1.0 12852:1.0 13357:1.0 13763:1.0 14148:1.0 14565:1.0 15154:1.0 
3.592745498078412 123:1.0 607:1.0 925:1.0 1323:1.0 1792:1.0 2209:1.0 2607:1.0 3127:1.0 3518:1.0 3935:1.0 4333:1.0 4557:1.0 4959:1.0 5350:1.0 5767:1.0 6165:1.0 6767:1.0 7169:1.0 7560:1.0 7715:1.0 8117:1.0 8538:1.0 8875:1.0 9283:1.0 10002:1.0 10419:1.0 10817:1.0 10925:1.0 11323:1.0 11736:1.0 12138:1.0 12529:1.0 12852:1.0 13357:1.0 13750:1.0 14167:1.0 14565:1.0 15154:1.0 
3.592745498078412 123:1.0 607:1.0 925:1.0 1323:1.0 1792:1.0 2209:1.0 2607:1.0 3124:1.0 3518:1.0 3935:1.0 4333:1.0 4562:1.0 4956:1.0 5350:1.0 5767:1.0 6165:1.0 6772:1.0 7166:1.0 7560:1.0 7720:1.0 8114:1.0 8535:1.0 8872:1.0 9283:1.0 10002:1.0 10419:1.0 10817:1.0 10925:1.0 11323:1.0 11741:1.0 12135:1.0 12529:1.0 12857:1.0 13362:1.0 13750:1.0 14167:1.0 14565:1.0 15154:1.0 
3.592745498078412 123:1.0 607:1.0 915:1.0 1323:1.0 1805:1.0 2199:1.0 2607:1.0 3119:1.0 3531:1.0 3925:1.0 4333:1.0 4556:1.0 4951:1.0 5363:1.0 5757:1.0 6165:1.0 6766:1.0 7161:1.0 7573:1.0 7714:1.0 8109:1.0 8530:1.0 8867:1.0 9273:1.0 10015:1.0 10409:1.0 10817:1.0 10915:1.0 11323:1.0 11735:1.0 12130:1.0 12542:1.0 12851:1.0 13356:1.0 13763:1.0 14157:1.0 14565:1.0 15154:1.0 
3.592745498078412 123:1.0 607:1.0 921:1.0 1323:1.0 1792:1.0 2205:1.0 2607:1.0 3133:1.0 3518:1.0 3931:1.0 4333:1.0 4556:1.0 4965:1.0 5350:1.0 5763:1.0 6165:1.0 6766:1.0 7175:1.0 7560:1.0 7714:1.0 8123:1.0 8544:1.0 8881:1.0 9279:1.0 10002:1.0 10415:1.0 10817:1.0 10921:1.0 11323:1.0 11735:1.0 12144:1.0 12529:1.0 12851:1.0 13356:1.0 13750:1.0 14163:1.0 14565:1.0 15154:1.0 
3.592745498078412 123:1.0 607:1.0 924:1.0 1323:1.0 1790:1.0 2208:1.0 2607:1.0 3123:1.0 3516:1.0 3934:1.0 4333:1.0 4555:1.0 4955:1.0 5348:1.0 5766:1.0 6165:1.0 6765:1.0 7165:1.0 7558:1.0 7713:1.0 8113:1.0 8534:1.0 8871:1.0 9282:1.0 10000:1.0 10418:1.0 10817:1.0 10924:1.0 11323:1.0 11734:1.0 12134:1.0 12527:1.0 12850:1.0 13355:1.0 13748:1.0 14166:1.0 14565:1.0 15154:1.0 
3.592745498078412 107:1.0 591:1.0 913:1.0 1307:1.0 1805:1.0 2197:1.0 2591:1.0 3133:1.0 3531:1.0 3923:1.0 4317:1.0 4557:1.0 4965:1.0 5363:1.0 5755:1.0 6149:1.0 6767:1.0 7175:1.0 7573:1.0 7715:1.0 8123:1.0 8544:1.0 8881:1.0 9271:1.0 10015:1.0 10407:1.0 10801:1.0 10913:1.0 11307:1.0 11736:1.0 12144:1.0 12542:1.0 12852:1.0 13357:1.0 13763:1.0 14155:1.0 14549:1.0 15138:1.0 
3.592745498078412 123:1.0 607:1.0 923:1.0 1323:1.0 1805:1.0 2207:1.0 2607:1.0 3118:1.0 3531:1.0 3933:1.0 4333:1.0 4562:1.0 4950:1.0 5363:1.0 5765:1.0 6165:1.0 6772:1.0 7160:1.0 7573:1.0 7720:1.0 8108:1.0 8529:1.0 8866:1.0 9281:1.0 10015:1.0 10417:1.0 10817:1.0 10923:1.0 11323:1.0 11741:1.0 12129:1.0 12542:1.0 12857:1.0 13362:1.0 13763:1.0 14165:1.0 14565:1.0 15154:1.0 
3.592745498078412 123:1.0 607:1.0 925:1.0 1323:1.0 1803:1.0 2209:1.0 2607:1.0 3131:1.0 3529:1.0 3935:1.0 4333:1.0 4556:1.0 4963:1.0 5361:1.0 5767:1.0 6165:1.0 6766:1.0 7173:1.0 7571:1.0 7714:1.0 8121:1.0 8731:1.0 8858:1.0 9262:1.0 9971:1.0 10377:1.0 10775:1.0 10925:1.0 11323:1.0 11882:1.0 12289:1.0 12687:1.0 12872:1.0 13209:1.0 13614:1.0 14020:1.0 14418:1.0 15133:1.0 
3.592745498078412 123:1.0 607:1.0 919:1.0 1323:1.0 1797:1.0 2203:1.0 2607:1.0 3121:1.0 3523:1.0 3929:1.0 4333:1.0 4564:1.0 4953:1.0 5355:1.0 5761:1.0 6165:1.0 6774:1.0 7163:1.0 7565:1.0 7722:1.0 8111:1.0 8721:1.0 8848:1.0 9256:1.0 9965:1.0 10371:1.0 10775:1.0 10919:1.0 11323:1.0 11890:1.0 12279:1.0 12681:1.0 12880:1.0 13217:1.0 13608:1.0 14014:1.0 14418:1.0 15133:1.0 
3.592745498078412 325:1.0 599:1.0 924:1.0 1315:1.0 1806:1.0 2208:1.0 2599:1.0 3125:1.0 3532:1.0 3934:1.0 4325:1.0 4552:1.0 4957:1.0 5364:1.0 5766:1.0 6157:1.0 6405:1.0 6810:1.0 7217:1.0 7710:1.0 8115:1.0 8410:1.0 9020:1.0 9429:1.0 9743:1.0 10145:1.0 10536:1.0 10924:1.0 11315:1.0 11731:1.0 12136:1.0 12543:1.0 13141:1.0 13562:1.0 13974:1.0 14376:1.0 14767:1.0 14810:1.0 
3.592745498078412 115:1.0 599:1.0 921:1.0 1315:1.0 1701:1.0 2100:1.0 2494:1.0 3119:1.0 3532:1.0 3931:1.0 4325:1.0 4557:1.0 4951:1.0 5364:1.0 5763:1.0 6157:1.0 6767:1.0 7161:1.0 7574:1.0 7715:1.0 8109:1.0 8572:1.0 9140:1.0 9552:1.0 9701:1.0 10100:1.0 10494:1.0 10921:1.0 11315:1.0 11736:1.0 12130:1.0 12543:1.0 12873:1.0 13567:1.0 13974:1.0 14373:1.0 14767:1.0 15146:1.0 
3.592745498078412 115:1.0 599:1.0 920:1.0 1315:1.0 1701:1.0 2099:1.0 2494:1.0 3119:1.0 3532:1.0 3930:1.0 4325:1.0 4561:1.0 4951:1.0 5364:1.0 5762:1.0 6157:1.0 6771:1.0 7161:1.0 7574:1.0 7719:1.0 8109:1.0 8572:1.0 9140:1.0 9551:1.0 9701:1.0 10099:1.0 10494:1.0 10920:1.0 11315:1.0 11740:1.0 12130:1.0 12543:1.0 12877:1.0 13571:1.0 13974:1.0 14372:1.0 14767:1.0 15146:1.0 
3.592745498078412 123:1.0 607:1.0 921:1.0 1323:1.0 1701:1.0 2100:1.0 2502:1.0 3129:1.0 3532:1.0 3931:1.0 4333:1.0 4556:1.0 4961:1.0 5364:1.0 5763:1.0 6165:1.0 6766:1.0 7171:1.0 7574:1.0 7714:1.0 8119:1.0 8582:1.0 9150:1.0 9552:1.0 9701:1.0 10100:1.0 10502:1.0 10921:1.0 11323:1.0 11735:1.0 12140:1.0 12543:1.0 12872:1.0 13566:1.0 13974:1.0 14373:1.0 14775:1.0 15154:1.0 
3.592745498078412 123:1.0 607:1.0 922:1.0 1323:1.0 1701:1.0 2101:1.0 2502:1.0 3119:1.0 3532:1.0 3932:1.0 4333:1.0 4553:1.0 4951:1.0 5364:1.0 5764:1.0 6165:1.0 6763:1.0 7161:1.0 7574:1.0 7711:1.0 8109:1.0 8572:1.0 9140:1.0 9553:1.0 9701:1.0 10101:1.0 10502:1.0 10922:1.0 11323:1.0 11732:1.0 12130:1.0 12543:1.0 12869:1.0 13563:1.0 13974:1.0 14374:1.0 14775:1.0 15154:1.0 
3.592745498078412 123:1.0 607:1.0 919:1.0 1323:1.0 1692:1.0 2098:1.0 2502:1.0 3121:1.0 3523:1.0 3929:1.0 4333:1.0 4564:1.0 4953:1.0 5355:1.0 5761:1.0 6165:1.0 6606:1.0 6995:1.0 7397:1.0 7659:1.0 8048:1.0 8700:1.0 9121:1.0 9529:1.0 9965:1.0 10371:1.0 10775:1.0 10919:1.0 11323:1.0 11806:1.0 12195:1.0 12597:1.0 12880:1.0 13574:1.0 13965:1.0 14371:1.0 14775:1.0 14818:1.0 
3.592745498078412 123:1.0 607:1.0 919:1.0 1323:1.0 1702:1.0 2098:1.0 2502:1.0 3128:1.0 3533:1.0 3929:1.0 4333:1.0 4557:1.0 4960:1.0 5365:1.0 5761:1.0 6165:1.0 6599:1.0 7002:1.0 7407:1.0 7652:1.0 8055:1.0 8707:1.0 9128:1.0 9529:1.0 9975:1.0 10371:1.0 10775:1.0 10919:1.0 11323:1.0 11799:1.0 12202:1.0 12607:1.0 12873:1.0 13567:1.0 13975:1.0 14371:1.0 14775:1.0 14818:1.0 
3.592745498078412 123:1.0 607:1.0 925:1.0 1323:1.0 1704:1.0 2104:1.0 2502:1.0 3119:1.0 3535:1.0 3935:1.0 4333:1.0 4556:1.0 4951:1.0 5367:1.0 5767:1.0 6165:1.0 6598:1.0 6993:1.0 7409:1.0 7651:1.0 8046:1.0 8698:1.0 9119:1.0 9535:1.0 9977:1.0 10377:1.0 10775:1.0 10925:1.0 11323:1.0 11798:1.0 12193:1.0 12609:1.0 12872:1.0 13566:1.0 13977:1.0 14377:1.0 14775:1.0 14818:1.0 
0.7327719871613801 115:1.0 809:1.0 920:1.0 1315:1.0 1701:1.0 2099:1.0 2494:1.0 2943:1.0 3343:1.0 3741:1.0 4136:1.0 4607:1.0 5006:1.0 5406:1.0 5804:1.0 6199:1.0 6544:1.0 6943:1.0 7343:1.0 7723:1.0 8122:1.0 8711:1.0 9006:1.0 9404:1.0 9680:1.0 10078:1.0 10473:1.0 11130:1.0 11525:1.0 11744:1.0 12143:1.0 12543:1.0 13091:1.0 13575:1.0 13974:1.0 14372:1.0 14767:1.0 14810:1.0 
1.0722346848104707 115:1.0 809:1.0 920:1.0 1315:1.0 1701:1.0 2099:1.0 2494:1.0 2933:1.0 3343:1.0 3741:1.0 4136:1.0 4592:1.0 4996:1.0 5406:1.0 5804:1.0 6199:1.0 6529:1.0 6933:1.0 7343:1.0 7708:1.0 8112:1.0 8701:1.0 8996:1.0 9404:1.0 9680:1.0 10078:1.0 10473:1.0 11130:1.0 11525:1.0 11729:1.0 12133:1.0 12543:1.0 13076:1.0 13560:1.0 13974:1.0 14372:1.0 14767:1.0 14810:1.0 
1.6946986023913133 115:1.0 809:1.0 920:1.0 1315:1.0 1701:1.0 2099:1.0 2494:1.0 2927:1.0 3343:1.0 3741:1.0 4136:1.0 4601:1.0 4990:1.0 5406:1.0 5804:1.0 6199:1.0 6538:1.0 6927:1.0 7343:1.0 7717:1.0 8106:1.0 8695:1.0 8990:1.0 9404:1.0 9680:1.0 10078:1.0 10473:1.0 11130:1.0 11525:1.0 11738:1.0 12127:1.0 12543:1.0 13085:1.0 13569:1.0 13974:1.0 14372:1.0 14767:1.0 14810:1.0 
0.4022476334384248 115:1.0 809:1.0 921:1.0 1315:1.0 1701:1.0 2100:1.0 2494:1.0 3035:1.0 3448:1.0 3847:1.0 4241:1.0 4599:1.0 4993:1.0 5406:1.0 5805:1.0 6199:1.0 6536:1.0 6930:1.0 7343:1.0 7925:1.0 8319:1.0 8698:1.0 9119:1.0 9531:1.0 9659:1.0 10058:1.0 10452:1.0 11131:1.0 11525:1.0 11736:1.0 12130:1.0 12543:1.0 12810:1.0 13567:1.0 13974:1.0 14373:1.0 14767:1.0 15083:1.0 
3.3158664526728012 115:1.0 809:1.0 917:1.0 1315:1.0 1700:1.0 2096:1.0 2494:1.0 3049:1.0 3447:1.0 3843:1.0 4241:1.0 4609:1.0 5007:1.0 5405:1.0 5801:1.0 6199:1.0 6546:1.0 6944:1.0 7342:1.0 7935:1.0 8333:1.0 8712:1.0 9133:1.0 9527:1.0 9658:1.0 10054:1.0 10452:1.0 11127:1.0 11525:1.0 11746:1.0 12144:1.0 12542:1.0 12820:1.0 13577:1.0 13973:1.0 14369:1.0 14767:1.0 15083:1.0 
3.208477757643135 115:1.0 809:1.0 910:1.0 1315:1.0 1700:1.0 2089:1.0 2494:1.0 3034:1.0 3447:1.0 3836:1.0 4241:1.0 4593:1.0 4992:1.0 5405:1.0 5794:1.0 6199:1.0 6530:1.0 6929:1.0 7342:1.0 7919:1.0 8318:1.0 8697:1.0 9118:1.0 9520:1.0 9658:1.0 10047:1.0 10452:1.0 11120:1.0 11525:1.0 11730:1.0 12129:1.0 12542:1.0 12804:1.0 13561:1.0 13973:1.0 14362:1.0 14767:1.0 15083:1.0 
3.592745498078412 123:1.0 607:1.0 925:1.0 1323:1.0 1687:1.0 2104:1.0 2502:1.0 2998:1.0 3392:1.0 3809:1.0 4207:1.0 4772:1.0 5166:1.0 5560:1.0 5977:1.0 6375:1.0 6583:1.0 6977:1.0 7371:1.0 7678:1.0 8072:1.0 8724:1.0 8851:1.0 9262:1.0 9750:1.0 10167:1.0 10565:1.0 10925:1.0 11323:1.0 12014:1.0 12408:1.0 12802:1.0 12857:1.0 13404:1.0 13792:1.0 14209:1.0 14607:1.0 14965:1.0 
3.592745498078412 123:1.0 607:1.0 925:1.0 1323:1.0 1687:1.0 2104:1.0 2502:1.0 3001:1.0 3392:1.0 3809:1.0 4207:1.0 4767:1.0 5169:1.0 5560:1.0 5977:1.0 6375:1.0 6578:1.0 6980:1.0 7371:1.0 7673:1.0 8075:1.0 8727:1.0 8854:1.0 9262:1.0 9750:1.0 10167:1.0 10565:1.0 10925:1.0 11323:1.0 12009:1.0 12411:1.0 12802:1.0 12852:1.0 13399:1.0 13792:1.0 14209:1.0 14607:1.0 14965:1.0 
3.592745498078412 123:1.0 607:1.0 915:1.0 1323:1.0 1700:1.0 2094:1.0 2502:1.0 2993:1.0 3405:1.0 3799:1.0 4207:1.0 4766:1.0 5161:1.0 5573:1.0 5967:1.0 6375:1.0 6577:1.0 6972:1.0 7384:1.0 7672:1.0 8067:1.0 8719:1.0 8846:1.0 9252:1.0 9763:1.0 10157:1.0 10565:1.0 10915:1.0 11323:1.0 12008:1.0 12403:1.0 12815:1.0 12851:1.0 13398:1.0 13805:1.0 14199:1.0 14607:1.0 14965:1.0 
3.592745498078412 123:1.0 607:1.0 921:1.0 1323:1.0 1700:1.0 2100:1.0 2502:1.0 3039:1.0 3447:1.0 3847:1.0 4249:1.0 4562:1.0 4955:1.0 5363:1.0 5763:1.0 6165:1.0 6772:1.0 7165:1.0 7573:1.0 7720:1.0 8113:1.0 8723:1.0 9102:1.0 9510:1.0 9784:1.0 10184:1.0 10586:1.0 10921:1.0 11323:1.0 11741:1.0 12134:1.0 12542:1.0 13088:1.0 13572:1.0 13973:1.0 14373:1.0 14775:1.0 14818:1.0 
3.592745498078412 123:1.0 607:1.0 916:1.0 1323:1.0 1700:1.0 2095:1.0 2502:1.0 3035:1.0 3447:1.0 3842:1.0 4249:1.0 4557:1.0 4951:1.0 5363:1.0 5758:1.0 6165:1.0 6767:1.0 7161:1.0 7573:1.0 7715:1.0 8109:1.0 8719:1.0 9098:1.0 9505:1.0 9784:1.0 10179:1.0 10586:1.0 10916:1.0 11323:1.0 11736:1.0 12130:1.0 12542:1.0 13083:1.0 13567:1.0 13973:1.0 14368:1.0 14775:1.0 14818:1.0 
3.481136364149884 123:1.0 607:1.0 918:1.0 1323:1.0 1701:1.0 2097:1.0 2502:1.0 3048:1.0 3448:1.0 3844:1.0 4249:1.0 4562:1.0 4964:1.0 5364:1.0 5760:1.0 6165:1.0 6772:1.0 7174:1.0 7574:1.0 7720:1.0 8122:1.0 8732:1.0 9111:1.0 9507:1.0 9785:1.0 10181:1.0 10586:1.0 10918:1.0 11323:1.0 11741:1.0 12143:1.0 12543:1.0 13088:1.0 13572:1.0 13974:1.0 14370:1.0 14775:1.0 14818:1.0 
3.592745498078412 123:1.0 607:1.0 906:1.0 1323:1.0 1700:1.0 2085:1.0 2502:1.0 3045:1.0 3447:1.0 3832:1.0 4249:1.0 4557:1.0 4961:1.0 5363:1.0 5748:1.0 6165:1.0 6767:1.0 7171:1.0 7573:1.0 7715:1.0 8119:1.0 8729:1.0 9108:1.0 9495:1.0 9784:1.0 10169:1.0 10586:1.0 10906:1.0 11323:1.0 11736:1.0 12140:1.0 12542:1.0 13083:1.0 13567:1.0 13973:1.0 14358:1.0 14775:1.0 14818:1.0 
3.592745498078412 123:1.0 607:1.0 921:1.0 1323:1.0 1700:1.0 2100:1.0 2502:1.0 3035:1.0 3447:1.0 3847:1.0 4249:1.0 4551:1.0 4951:1.0 5363:1.0 5763:1.0 6165:1.0 6761:1.0 7161:1.0 7573:1.0 7709:1.0 8109:1.0 8719:1.0 9098:1.0 9510:1.0 9784:1.0 10184:1.0 10586:1.0 10921:1.0 11323:1.0 11730:1.0 12130:1.0 12542:1.0 13077:1.0 13561:1.0 13973:1.0 14373:1.0 14775:1.0 14818:1.0 
3.592745498078412 123:1.0 607:1.0 914:1.0 1323:1.0 1700:1.0 2093:1.0 2502:1.0 3035:1.0 3447:1.0 3840:1.0 4249:1.0 4559:1.0 4951:1.0 5363:1.0 5756:1.0 6165:1.0 6769:1.0 7161:1.0 7573:1.0 7717:1.0 8109:1.0 8719:1.0 9098:1.0 9503:1.0 9784:1.0 10177:1.0 10586:1.0 10914:1.0 11323:1.0 11738:1.0 12130:1.0 12542:1.0 13085:1.0 13569:1.0 13973:1.0 14366:1.0 14775:1.0 14818:1.0 
3.592745498078412 123:1.0 607:1.0 909:1.0 1323:1.0 1701:1.0 2088:1.0 2502:1.0 3049:1.0 3448:1.0 3835:1.0 4249:1.0 4558:1.0 4965:1.0 5364:1.0 5751:1.0 6165:1.0 6768:1.0 7175:1.0 7574:1.0 7716:1.0 8123:1.0 8733:1.0 9112:1.0 9498:1.0 9785:1.0 10172:1.0 10586:1.0 10909:1.0 11323:1.0 11737:1.0 12144:1.0 12543:1.0 13084:1.0 13568:1.0 13974:1.0 14361:1.0 14775:1.0 14818:1.0 
3.592745498078412 123:1.0 607:1.0 908:1.0 1323:1.0 1700:1.0 2087:1.0 2502:1.0 3034:1.0 3447:1.0 3834:1.0 4249:1.0 4551:1.0 4950:1.0 5363:1.0 5750:1.0 6165:1.0 6761:1.0 7160:1.0 7573:1.0 7709:1.0 8108:1.0 8718:1.0 9097:1.0 9497:1.0 9784:1.0 10171:1.0 10586:1.0 10908:1.0 11323:1.0 11730:1.0 12129:1.0 12542:1.0 13077:1.0 13561:1.0 13973:1.0 14360:1.0 14775:1.0 14818:1.0 
3.592745498078412 123:1.0 607:1.0 908:1.0 1323:1.0 1700:1.0 2087:1.0 2502:1.0 3035:1.0 3447:1.0 3834:1.0 4249:1.0 4555:1.0 4951:1.0 5363:1.0 5750:1.0 6165:1.0 6765:1.0 7161:1.0 7573:1.0 7713:1.0 8109:1.0 8719:1.0 9098:1.0 9497:1.0 9784:1.0 10171:1.0 10586:1.0 10908:1.0 11323:1.0 11734:1.0 12130:1.0 12542:1.0 13081:1.0 13565:1.0 13973:1.0 14360:1.0 14775:1.0 14818:1.0 
3.457926501264073 123:1.0 607:1.0 917:1.0 1323:1.0 1700:1.0 2096:1.0 2502:1.0 3039:1.0 3447:1.0 3843:1.0 4249:1.0 4562:1.0 4955:1.0 5363:1.0 5759:1.0 6165:1.0 6772:1.0 7165:1.0 7573:1.0 7720:1.0 8113:1.0 8723:1.0 9102:1.0 9506:1.0 9784:1.0 10180:1.0 10586:1.0 10917:1.0 11323:1.0 11741:1.0 12134:1.0 12542:1.0 13088:1.0 13572:1.0 13973:1.0 14369:1.0 14775:1.0 14818:1.0 
0.09798257544778988 123:1.0 607:1.0 915:1.0 1323:1.0 1700:1.0 2094:1.0 2502:1.0 3035:1.0 3447:1.0 3841:1.0 4249:1.0 4556:1.0 4951:1.0 5363:1.0 5757:1.0 6165:1.0 6766:1.0 7161:1.0 7573:1.0 7714:1.0 8109:1.0 8719:1.0 9098:1.0 9504:1.0 9784:1.0 10178:1.0 10586:1.0 10915:1.0 11323:1.0 11735:1.0 12130:1.0 12542:1.0 13082:1.0 13566:1.0 13973:1.0 14367:1.0 14775:1.0 14818:1.0 
3.592745498078412 113:1.0 597:1.0 921:1.0 1313:1.0 1701:1.0 2100:1.0 2492:1.0 3035:1.0 3448:1.0 3847:1.0 4239:1.0 4550:1.0 4951:1.0 5364:1.0 5763:1.0 6155:1.0 6760:1.0 7161:1.0 7574:1.0 7708:1.0 8109:1.0 8719:1.0 9098:1.0 9510:1.0 9785:1.0 10184:1.0 10576:1.0 10921:1.0 11313:1.0 11729:1.0 12130:1.0 12543:1.0 13076:1.0 13560:1.0 13974:1.0 14373:1.0 14765:1.0 14808:1.0 
2.4339864791296186 123:1.0 607:1.0 920:1.0 1323:1.0 1701:1.0 2099:1.0 2502:1.0 3034:1.0 3448:1.0 3846:1.0 4249:1.0 4565:1.0 4950:1.0 5364:1.0 5762:1.0 6165:1.0 6775:1.0 7160:1.0 7574:1.0 7723:1.0 8108:1.0 8718:1.0 9097:1.0 9509:1.0 9785:1.0 10183:1.0 10586:1.0 10920:1.0 11323:1.0 11744:1.0 12129:1.0 12543:1.0 13091:1.0 13575:1.0 13974:1.0 14372:1.0 14775:1.0 14818:1.0 
3.592745498078412 123:1.0 607:1.0 923:1.0 1323:1.0 1700:1.0 2102:1.0 2502:1.0 3034:1.0 3447:1.0 3849:1.0 4249:1.0 4562:1.0 4950:1.0 5363:1.0 5765:1.0 6165:1.0 6772:1.0 7160:1.0 7573:1.0 7720:1.0 8108:1.0 8718:1.0 9097:1.0 9512:1.0 9784:1.0 10186:1.0 10586:1.0 10923:1.0 11323:1.0 11741:1.0 12129:1.0 12542:1.0 13088:1.0 13572:1.0 13973:1.0 14375:1.0 14775:1.0 14818:1.0 
3.592745498078412 113:1.0 597:1.0 921:1.0 1313:1.0 1701:1.0 2100:1.0 2492:1.0 3037:1.0 3448:1.0 3847:1.0 4239:1.0 4554:1.0 4953:1.0 5364:1.0 5763:1.0 6155:1.0 6764:1.0 7163:1.0 7574:1.0 7712:1.0 8111:1.0 8721:1.0 9100:1.0 9510:1.0 9785:1.0 10184:1.0 10576:1.0 10921:1.0 11313:1.0 11733:1.0 12132:1.0 12543:1.0 13080:1.0 13564:1.0 13974:1.0 14373:1.0 14765:1.0 14808:1.0 
3.592745498078412 123:1.0 607:1.0 917:1.0 1323:1.0 1700:1.0 2096:1.0 2502:1.0 3045:1.0 3447:1.0 3843:1.0 4249:1.0 4561:1.0 4961:1.0 5363:1.0 5759:1.0 6165:1.0 6771:1.0 7171:1.0 7573:1.0 7719:1.0 8119:1.0 8729:1.0 9108:1.0 9506:1.0 9784:1.0 10180:1.0 10586:1.0 10917:1.0 11323:1.0 11740:1.0 12140:1.0 12542:1.0 13087:1.0 13571:1.0 13973:1.0 14369:1.0 14775:1.0 14818:1.0 
